#############################################################################
## Copyright (c) 1996, Carnegie Mellon University, Cambridge University,
## Ronald Rosenfeld and Philip Clarkson
#############################################################################
=============================================================================
===============  This file was produced by the CMU-Cambridge  ===============
===============     Statistical Language Modeling Toolkit     ===============
=============================================================================
This is a 3-gram language model, based on a vocabulary of 2169 words,
  which begins "</s>", "<s>", "_"...
This is an OPEN-vocabulary model (type 1)
  (OOVs were mapped to UNK, which is treated as any other vocabulary word)
Good-Turing discounting was applied.
1-gram frequency of frequency : 0
2-gram frequency of frequency : 11683 1826 584 256 144 80 45
3-gram frequency of frequency : 18957 1058 218 73 37 38 25
1-gram discounting ratios :
2-gram discounting ratios : 0.29 0.47 0.57 0.70 0.66 0.65 0.96
3-gram discounting ratios : 0.00 0.30 0.44 0.63
This file is in the ARPA-standard format introduced by Doug Paul.

p(wd3|wd1,wd2)= if(trigram exists)           p_3(wd1,wd2,wd3)
                else if(bigram w1,w2 exists) bo_wt_2(w1,w2)*p(wd3|wd2)
                else                         p(wd3|w2)

p(wd2|wd1)= if(bigram exists) p_2(wd1,wd2)
            else              bo_wt_1(wd1)*p_1(wd2)

All probs and back-off weights (bo_wt) are given in log10 form.

Data formats:

Beginning of data mark: \data\
ngram 1=nr            # number of 1-grams
ngram 2=nr            # number of 2-grams
ngram 3=nr            # number of 3-grams

\1-grams:
p_1     wd_1 bo_wt_1
\2-grams:
p_2     wd_1 wd_2 bo_wt_2
\3-grams:
p_3     wd_1 wd_2 wd_3

end of data mark: \end\

\data\
ngram 1=7
ngram 2=14
ngram 3=11

\1-grams:
-1.1043 <UNK>	-0.0004
-1.3750 </s>	-2.9800
-1.3746 <s>	-0.2447
-3.1180 bir	-0.3301
-3.1180 saat	-0.3301
-3.8962 sabah	-0.2256
-3.2272 sadece	-0.1010

\2-grams:
-0.9288 <UNK> <UNK> 0.0356
-1.1201 <UNK> </s> 0.8495
-0.0004 </s> <s> 0.0821
-1.1183 <s> <UNK> -0.0310
-1.1183 <s> bir -0.0310
-1.1183 <s> saat -0.0310
-0.9106 bir saat -0.0798
-0.9106 bir sabah -0.0798
-0.9106 saat sabah -0.0798
-0.9106 saat bir -0.0798
-1.6774 saat sadece 0.0000
-0.9106 sabah saat -0.1991
-1.6774 sadece bir 0.0000
-1.6774 sadece saat 0.0000

\3-grams:
-0.8090 <UNK> <UNK> <UNK>
-1.0007 <UNK> <UNK> </s>
-2.0617 <UNK> <UNK> bir
-1.3617 <UNK> <UNK> saat
-1.4617 <UNK> bir saat
-4.000 <UNK> bir sabah
-1.5617 <s> bir sabah
-1.6617 <s> bir sadece
-1.7617 <s> bir bir
-1.8617 <s> bir </s>
-1.0617 <s> sadece sabah

