
\data\
ngram 1= 5852
ngram 2= 12339
ngram 3= 13401
ngram 4= 12943
ngram 5= 12181

\1-grams:
-4.13384	<s>	-0.41583
-3.95775	bitlis	-0.477121
-3.65672	merkeze	-0.778151
-3.48063	bağlı	-0.367977
-3.95775	bölükyazı	-0.30103
-3.95775	kırsalında	-0.30103
-3.7359	arama	-0.477121
-3.7359	tarama	-0.477121
-3.65672	faaliyeti	-0.352183
-3.43487	sırasında	-0.30103
-3.95775	mayın	-0.477121
-3.95775	patlaması	-0.477121
-3.35569	sonucu	-0.30103
-2.00674	bir	-0.378511
-3.65672	uzman	-0.544068
-3.7359	çavuş	-0.367977
-2.59602	ile	-0.332952
-3.65672	er	-0.425969
-3.35569	şehit	-0.322219
-3.09245	oldu	-1.0607
-1.43444	</s>
-2.84381	olan	-0.355388
-4.13384	askerlerin	-0.30103
-3.53178	ramazan	-0.380211
-3.95775	us	-0.30103
-2.01823	ve	-0.323537
-3.15612	ali	-0.359022
-3.95775	kadıoğlu	-0.30103
-3.03693	olduğu	-0.354715
-3.83281	belirlendi	-0.60206
-4.13384	kırsalındaki	-0.30103
-4.13384	keleşevir	-0.30103
-4.13384	tepesinde	-0.30103
-4.13384	faaliyetine	-0.30103
-3.65672	katılan	-0.30103
-4.13384	denizli	-0.30103
-3.95775	nüfusuna	-0.477121
-3.83281	kayıtlı	-0.30103
-4.13384	osmaniyenin	-0.30103
-4.13384	bahçe	-0.30103
-3.83281	köyü	-0.30103
-3.83281	düştü	-0.60206
-4.13384	şehitler	-0.30103
-2.57754	için	-0.317177
-3.7359	tatvan	-0.30103
-3.35569	askeri	-0.30103
-3.95775	hastanesinde	-0.30103
-3.95775	tören	-0.477121
-3.95775	düzenlendi	-0.477121
-4.13384	törenin	-0.30103
-3.28874	ardından	-0.318759
-4.13384	ramazanın	-0.30103
-4.13384	usun	-0.30103
-3.95775	cenazesi	-0.30103
-4.13384	denizliye	-0.30103
-4.13384	kadıoğlunun	-0.30103
-2.76277	ise	-0.379113
-4.13384	osmaniyeye	-0.30103
-4.13384	gönderiliyor	-0.30103
-4.13384	olayın	-0.30103
-3.83281	bölgede	-0.39794
-3.7359	geniş	-0.477121
-3.83281	çaplı	-0.39794
-3.83281	operasyon	-0.30103
-3.95775	başlatıldı	-0.477121
-4.13384	devletin	-0.30103
-4.13384	zirvesinden	-0.30103
-4.13384	taziye	-0.30103
-3.95775	mesajı	-0.30103
-3.23075	cumhurbaşkanı	-0.373581
-3.65672	abdullah	-0.425969
-3.53178	gül	-0.30103
-3.7359	tbmm	-0.30103
-3.05466	başkanı	-0.332438
-4.13384	köksal	-0.30103
-4.13384	toptan	-0.30103
-2.98771	başbakan	-0.413004
-3.65672	recep	-0.544068
-3.65672	tayyip	-0.544068
-2.94351	erdoğan	-0.308454
-4.13384	chp	-0.30103
-3.0199	genel	-0.364699
-3.95775	deniz	-0.30103
-4.13384	baykal	-0.30103
-2.16071	iki	-0.564835
-4.13384	askerin	-0.30103
-3.83281	olması	-0.30103
-3.13384	nedeniyle	-0.30103
-3.95775	genelkurmay	-0.30103
-3.95775	orgeneral	-0.30103
-3.95775	yaşar	-0.30103
-4.13384	büyükanıta	-0.30103
-4.13384	başsağlığı	-0.30103
-4.13384	telgrafı	-0.30103
-4.13384	gönderdi	-0.30103
-4.13384	vanda	-0.30103
-3.83281	mayına	-0.39794
-3.95775	basan	-0.477121
-2.54278	üç	-0.445713
-3.95775	korucu	-0.30103
-3.95775	yaralı	-0.30103
-4.13384	vanın	-0.30103
-4.13384	çatak	-0.30103
-3.95775	ilçesinde	-0.30103
-2.49535	de	-0.328701
-3.58977	pkk	-0.39794
-2.83281	tarafından	-0.346108
-3.83281	araziye	-0.39794
-3.95775	döşenen	-0.477121
-3.53178	geçici	-0.653213
-3.53178	köy	-0.522879
-3.83281	korucusu	-0.39794
-3.58977	yaralandı	-0.845098
-4.13384	narlı	-0.30103
-4.13384	operasyonlarını	-0.30103
-4.13384	sürdüren	-0.30103
-4.13384	ilçe	-0.30103
-3.65672	jandarma	-0.352183
-4.13384	komutanlığı	-0.30103
-4.13384	ekiplerinin	-0.30103
-3.7359	arazi	-0.367977
-3.95775	operasyonda	-0.30103
-3.83281	korucuları	-0.30103
-2.98771	terör	-0.447158
-3.39348	örgütü	-0.324511
-4.13384	pkklılar	-0.30103
-4.13384	bastı	-0.30103
-3.95775	patlamada	-0.30103
-4.13384	korucularından	-0.30103
-4.13384	sinin	-0.30103
-3.53178	kasım	-0.380211
-4.13384	artim	-0.30103
-2.76277	otuz	-0.518514
-3.65672	süleyman	-0.425969
-3.95775	akman	-0.30103
-3.48063	tespit	-0.367977
-3.32093	edildi	-0.845098
-4.13384	yaralılardan	-0.30103
-4.13384	artimin	-0.30103
-3.28874	ankara	-0.38818
-4.13384	gülhane	-0.30103
-4.13384	tıp	-0.30103
-4.13384	akademisine	-0.30103
-4.13384	sevkedildiği	-0.30103
-3.32093	diğer	-0.30103
-4.13384	yaralının	-0.30103
-4.13384	van	-0.30103
-4.13384	hastanesindeki	-0.30103
-4.13384	tedavisinin	-0.30103
-4.13384	sürdürüldüğü	-0.30103
-3.7359	bildirildi	-0.69897
-4.13384	tuncelide	-0.30103
-4.13384	intihar	-0.30103
-3.83281	saldırısı	-0.30103
-2.76277	yirmi	-0.588272
-2.46639	beş	-0.431959
-3.58977	eylülde	-0.342423
-4.13384	tunceli	-0.30103
-4.13384	kocakoç	-0.30103
-4.13384	karakoluna	-0.30103
-4.13384	ekmek	-0.30103
-3.95775	götüren	-0.30103
-3.95775	aracı	-0.30103
-4.13384	gasp	-0.30103
-3.58977	ederek	-0.30103
-3.95775	sürücünün	-0.30103
-3.48063	yerine	-0.30103
-3.07314	geçen	-0.50515
-3.53178	terörist	-0.30103
-3.43487	bomba	-0.327359
-4.13384	yerleştirilen	-0.30103
-4.13384	nizamiye	-0.30103
-3.95775	girişinde	-0.30103
-4.13384	patlatmış	-0.30103
-4.13384	asker	-0.30103
-3.7359	olmuştu	-0.69897
-3.7359	şırnak	-0.30103
-4.13384	beytüşşebapta	-0.30103
-3.58977	çıkan	-0.30103
-3.95775	çatışmada	-0.30103
-4.13384	astsubay	-0.30103
-4.13384	düşmüştü	-0.30103
-3.25878	eski	-0.380211
-4.13384	yargıtay	-0.30103
-4.13384	cumhuriyet	-0.30103
-4.13384	başsavcısı	-0.30103
-3.95775	sabih	-0.477121
-3.83281	kanadoğlu	-0.30103
-3.0199	yeni	-0.364699
-3.25878	anayasa	-0.30103
-4.13384	hazırlığını	-0.30103
-4.13384	eleştirerek	-0.30103
-3.7359	hazırlanan	-0.30103
-3.39348	sivil	-0.477121
-3.95775	darbedir	-0.30103
-2.8014	dedi	-1.34242
-4.13384	ayvalıkta	-0.30103
-3.65672	katıldığı	-0.30103
-4.13384	konulu	-0.30103
-4.13384	toplantıda	-0.30103
-4.13384	gazetecilerin	-0.30103
-4.13384	sorularını	-0.30103
-4.13384	yanıtladı	-0.30103
-2.37797	bu	-0.355961
-4.13384	hazırlığı	-0.30103
-3.95775	değildir	-0.477121
-3.95775	doğrudan	-0.30103
-4.13384	doğruya	-0.30103
-4.13384	dinci	-0.30103
-4.13384	oligarşik	-0.30103
-4.13384	yapının	-0.30103
-4.13384	teşebbüsüdür	-0.30103
-4.13384	darbe	-0.30103
-4.13384	teşebbüsüne	-0.30103
-3.13384	sadece	-0.325854
-3.65672	toplum	-0.30103
-3.83281	örgütlerinin	-0.30103
-3.48063	değil	-0.367977
-3.95775	laik	-0.30103
-3.95775	demokratik	-0.30103
-4.13384	cumhuriyetin	-0.30103
-4.13384	inanmış	-0.30103
-3.11265	her	-0.425969
-4.13384	vatandaşının	-0.30103
-3.7359	türlü	-0.30103
-4.13384	olanakla	-0.30103
-3.48063	kendi	-0.330993
-4.13384	gücüyle	-0.30103
-3.03693	karşı	-0.367977
-3.83281	çıkması	-0.30103
-4.13384	şarttır	-0.30103
-3.65672	özok	-0.30103
-2.98771	seksen	-0.568202
-4.13384	anayasasına	-0.30103
-2.47108	da	-0.345047
-3.95775	itiraz	-0.30103
-4.13384	ettik	-0.30103
-3.95775	izmirde	-0.30103
-3.95775	danıştaya	-0.30103
-2.48548	on	-0.655138
-2.57155	yedi	-0.447158
-3.53178	mayıs	-0.522879
-2.31102	bin	-0.770033
-2.64248	altı	-0.48192
-3.35569	tarihinde	-0.322219
-3.53178	düzenlenen	-0.30103
-3.53178	saldırı	-0.335792
-4.13384	anısına	-0.30103
-4.13384	yaptırılan	-0.30103
-4.13384	bağımsız	-0.30103
-3.7359	yargı	-0.30103
-3.95775	danıştay	-0.30103
-4.13384	anıtının	-0.30103
-3.83281	açılışına	-0.39794
-2.91636	türkiye	-0.414973
-4.13384	barolar	-0.30103
-3.65672	birliği	-0.30103
-3.83281	tbb	-0.30103
-3.95775	özdemir	-0.30103
-2.49535	dokuz	-0.661181
-2.33796	yüz	-0.82193
-3.95775	anayasası	-0.30103
-4.13384	hazırlandığında	-0.30103
-2.62196	olarak	-0.322932
-4.13384	ettiklerini	-0.30103
-4.13384	itirazlarının	-0.30103
-4.13384	doğruluğunun	-0.30103
-3.48063	bugün	-0.330993
-2.92972	daha	-0.450792
-3.28874	iyi	-0.318759
-4.13384	anlaşıldığını	-0.30103
-3.1796	ifade	-0.49485
-3.07314	etti	-0.920819
-3.83281	anayasasının	-0.30103
-3.58977	türkiyeye	-0.30103
-3.7359	getirdiği	-0.30103
-4.13384	çarpık	-0.30103
-3.65672	hukuk	-0.30103
-4.13384	anlayışı	-0.30103
-3.48063	bütün	-0.30103
-3.95775	çağdaş	-0.30103
-4.13384	kurumlarını	-0.30103
-3.95775	birer	-0.30103
-4.13384	çözümledi	-0.30103
-3.43487	şimdi	-0.359022
-4.13384	renksiz	-0.30103
-3.83281	adı	-0.30103
-3.53178	altında	-0.30103
-3.28874	kez	-0.30103
-4.13384	birtakım	-0.30103
-4.13384	düzenlemeler	-0.30103
-4.13384	içerisine	-0.30103
-4.13384	girilmek	-0.30103
-4.13384	isteniyor	-0.30103
-3.83281	ülkemizde	-0.30103
-3.95775	adli	-0.30103
-3.95775	yargının	-0.30103
-4.13384	idari	-0.30103
-4.13384	devleti	-0.30103
-3.83281	adına	-0.30103
-4.13384	olmazsa	-0.30103
-3.65672	olmaz	-0.352183
-4.13384	koşulu	-0.30103
-4.13384	bağımsızlığının	-0.30103
-3.95775	siyasal	-0.30103
-3.95775	iktidara	-0.30103
-4.13384	bağımlı	-0.30103
-4.13384	düzenlenmesi	-0.30103
-4.13384	haline	-0.30103
-4.13384	gelmesine	-0.30103
-3.95775	asla	-0.477121
-3.7359	izin	-0.30103
-4.13384	vermeyecektir	-0.30103
-3.11265	diye	-0.69897
-3.15612	konuştu	-1.27875
-4.13384	düzenlemeyle	-0.30103
-4.13384	hakimler	-0.30103
-3.83281	savcılar	-0.30103
-3.20442	yüksek	-0.348455
-3.83281	kuruluna	-0.30103
-3.95775	seçilecek	-0.30103
-4.13384	üyenin	-0.30103
-3.83281	üyelerinin	-0.30103
-4.13384	ünün	-0.30103
-3.83281	bakanlar	-0.39794
-3.65672	kurulu	-0.30103
-4.13384	seçilmesinin	-0.30103
-4.13384	gündemde	-0.30103
-2.84381	olduğunu	-0.401401
-4.13384	hatırlatan	-0.30103
-3.43487	bunu	-0.327359
-3.03693	kabul	-0.454258
-4.13384	edemeyeceklerini	-0.30103
-3.83281	iktidarın	-0.39794
-3.28874	üzerine	-0.30103
-4.13384	gölge	-0.30103
-4.13384	düşürmesineizin	-0.30103
-4.13384	verilmeyeceğini	-0.30103
-4.13384	ailelerine	-0.30103
-4.13384	çankaya	-0.30103
-4.13384	köşkünde	-0.30103
-3.65672	iftar	-0.30103
-4.13384	yemeği	-0.30103
-3.58977	verdi	-0.845098
-4.13384	köşkteki	-0.30103
-4.13384	davete	-0.30103
-3.7359	cumhurbaşkanının	-0.367977
-3.83281	eşi	-0.30103
-4.13384	hayrünnisa	-0.30103
-3.65672	katıldı	-0.778151
-4.13384	yemeğe	-0.30103
-4.13384	muharip	-0.30103
-3.95775	gaziler	-0.30103
-3.65672	derneği	-0.30103
-3.83281	harp	-0.30103
-3.95775	malulü	-0.30103
-3.95775	dul	-0.477121
-4.13384	yetimleri	-0.30103
-3.58977	emniyet	-0.39794
-3.95775	teşkilatı	-0.30103
-4.13384	vazife	-0.30103
-4.13384	aileleri	-0.30103
-3.95775	yardımlaşma	-0.30103
-3.95775	dayanışma	-0.30103
-3.7359	üyesi	-0.30103
-4.13384	davetli	-0.30103
-4.13384	liste	-0.30103
-3.65672	başkanlığı	-0.30103
-4.13384	irtibat	-0.30103
-3.83281	halinde	-0.30103
-3.95775	oluşturuldu	-0.477121
-4.13384	masalarındaki	-0.30103
-4.13384	konuklarla	-0.30103
-4.13384	vaktinden	-0.30103
-3.23075	önce	-0.30103
-3.58977	süre	-0.342423
-3.95775	sohbet	-0.30103
-2.98771	sonra	-0.327359
-3.95775	sosyal	-0.30103
-4.13384	hizmetler	-0.30103
-3.58977	çocuk	-0.477121
-4.13384	esirgeme	-0.30103
-3.83281	kurumu	-0.30103
-4.13384	yurtlarında	-0.30103
-3.58977	kalan	-0.30103
-4.13384	yaşlı	-0.30103
-4.13384	kimsesiz	-0.30103
-4.13384	yetimlere	-0.30103
-4.13384	daveti	-0.30103
-3.95775	vermesi	-0.30103
-4.13384	planlanıyor	-0.30103
-3.58977	iş	-0.30103
-4.13384	dünyasının	-0.30103
-4.13384	temsilcileri	-0.30103
-4.13384	milletvekilleri	-0.30103
-4.13384	köşke	-0.30103
-3.83281	davet	-0.30103
-3.83281	edilecek	-0.39794
-2.65672	sekiz	-0.393575
-3.53178	inci	-0.439333
-4.13384	turgut	-0.30103
-4.13384	özal	-0.30103
-3.95775	başlayan	-0.30103
-4.13384	köşkte	-0.30103
-4.13384	geleneği	-0.30103
-3.95775	demirel	-0.30103
-3.58977	döneminde	-0.342423
-4.13384	sürmüş	-0.30103
-3.00351	ancak	-0.338819
-3.65672	uncu	-0.30103
-3.53178	ahmet	-0.335792
-4.13384	necdet	-0.30103
-4.13384	sezer	-0.30103
-3.65672	hiç	-0.352183
-4.13384	uygulanmamıştı	-0.30103
-3.39348	türk	-0.324511
-3.95775	işe	-0.30103
-2.90339	göre	-0.365488
-3.25878	eylül	-0.522879
-3.13384	ayında	-0.339948
-2.65672	dört	-0.437004
-3.65672	kişilik	-0.425969
-3.65672	ailenin	-0.425969
-3.95775	açlık	-0.477121
-3.7359	sınırı	-0.30103
-2.76277	elli	-0.503856
-2.71887	nokta	-0.583577
-2.98771	altmış	-0.488117
-3.48063	ytl	-0.30103
-4.13384	yolsulluk	-0.30103
-3.95775	ytlye	-0.477121
-3.58977	yükseldi	-0.845098
-3.35569	ay	-0.322219
-3.83281	düzenli	-0.60206
-2.97247	yapılan	-0.31742
-4.13384	hesaplamaların	-0.30103
-4.13384	ayki	-0.30103
-3.95775	verilerine	-0.477121
-2.90339	ayı	-0.669007
-3.95775	itibariyle	-0.30103
-3.7359	aya	-0.69897
-3.48063	artarak	-0.30103
-3.65672	ankarada	-0.30103
-3.95775	yaşayan	-0.30103
-3.43487	gıda	-0.327359
-3.95775	yapması	-0.30103
-3.53178	gereken	-0.335792
-3.95775	asgari	-0.30103
-3.58977	harcama	-0.39794
-3.95775	tutarı	-0.30103
-3.83281	önceki	-0.39794
-2.68668	yüzde	-0.590478
-2.98771	kırk	-0.413004
-4.13384	artmış	-0.30103
-4.13384	verilere	-0.30103
-4.13384	harcamalarının	-0.30103
-3.7359	yanı	-0.477121
-3.65672	sıra	-0.30103
-4.13384	kira	-0.30103
-3.83281	ulaşım	-0.30103
-4.13384	giyim	-0.30103
-3.32093	eğitim	-0.320335
-3.83281	kültür	-0.30103
-3.11265	gibi	-0.30103
-3.83281	temel	-0.30103
-4.13384	ihtiyaçları	-0.30103
-3.83281	harcaması	-0.30103
-3.25878	eden	-0.31742
-4.13384	yoksulluk	-0.30103
-3.28874	aynı	-0.419129
-3.43487	dönemde	-0.359022
-4.13384	ykrden	-0.30103
-4.13384	ykrye	-0.30103
-3.65672	çıktı	-0.778151
-3.53178	yılın	-0.522879
-3.0199	ilk	-0.378196
-4.13384	tutarındaki	-0.30103
-3.65672	artış	-0.425969
-4.13384	harcamasındaki	-0.30103
-3.53178	yıllık	-0.335792
-3.83281	ortalama	-0.39794
-3.03693	yetmiş	-0.502675
-3.95775	hesaplandı	-0.477121
-4.13384	zam	-0.30103
-4.13384	çalışmasına	-0.30103
-4.13384	yoğurtta	-0.30103
-4.13384	süt	-0.30103
-4.13384	peynirde	-0.30103
-3.65672	oranında	-0.352183
-3.83281	fiyat	-0.39794
-3.7359	artışı	-0.30103
-4.13384	kıyma	-0.30103
-4.13384	et	-0.30103
-3.35569	fiyatı	-0.410174
-3.83281	artarken	-0.30103
-4.13384	sakatat	-0.30103
-4.13384	tavuk	-0.30103
-3.58977	kaldı	-0.477121
-4.13384	yumurta	-0.30103
-3.95775	fiyatları	-0.30103
-3.65672	arttı	-0.425969
-4.13384	mercimek	-0.30103
-4.13384	fiyatındaki	-0.30103
-4.13384	artışa	-0.30103
-3.83281	karşılık	-0.30103
-4.13384	nohut	-0.30103
-3.95775	geriledi	-0.477121
-4.13384	sebze	-0.30103
-4.13384	meyve	-0.30103
-4.13384	kilogramı	-0.30103
-3.95775	ykr	-0.30103
-4.13384	ucuzlayan	-0.30103
-4.13384	patates	-0.30103
-4.13384	kuru	-0.30103
-4.13384	soğanın	-0.30103
-4.13384	tutarda	-0.30103
-4.13384	pide	-0.30103
-4.13384	tercihi	-0.30103
-3.83281	gram	-0.39794
-4.13384	pidenin	-0.30103
-3.95775	harcamaları	-0.30103
-3.95775	kısmen	-0.30103
-4.13384	yükseltti	-0.30103
-4.13384	makarna	-0.30103
-4.13384	bulgur	-0.30103
-4.13384	pirinç	-0.30103
-4.13384	irmik	-0.30103
-3.95775	değişmedi	-0.477121
-4.13384	ayçiçek	-0.30103
-4.13384	yağı	-0.30103
-4.13384	margarin	-0.30103
-3.53178	buna	-0.380211
-4.13384	tereyağ	-0.30103
-4.13384	zeytinyağı	-0.30103
-4.13384	çay	-0.30103
-4.13384	salça	-0.30103
-4.13384	ürün	-0.30103
-4.13384	ıhlamur	-0.30103
-4.13384	raflardaki	-0.30103
-3.58977	yerini	-0.30103
-3.39348	aldı	-0.778151
-3.7359	işin	-0.30103
-3.7359	konuyla	-0.69897
-2.98771	ilgili	-0.309303
-4.13384	değerlendirmesinde	-0.30103
-4.13384	tüketim	-0.30103
-3.13384	içinde	-0.372386
-3.43487	önemli	-0.359022
-3.7359	payı	-0.367977
-3.48063	bulunan	-0.30103
-4.13384	maddelerine	-0.30103
-4.13384	fırsat	-0.30103
-4.13384	bilinerek	-0.30103
-4.13384	artışlarının	-0.30103
-4.13384	aile	-0.30103
-4.13384	bütçesini	-0.30103
-4.13384	olumsuz	-0.30103
-3.83281	yönde	-0.30103
-4.13384	etkilediği	-0.30103
-3.95775	edilerek	-0.30103
-3.95775	maddeleri	-0.30103
-3.35569	fazla	-0.30103
-4.13384	yapıldığı	-0.30103
-3.53178	belirtildi	-0.90309
-4.13384	karayollarının	-0.30103
-3.58977	bazı	-0.342423
-4.13384	kesimlerinde	-0.30103
-4.13384	yapım	-0.30103
-4.13384	bakım	-0.30103
-4.13384	onarım	-0.30103
-3.48063	çalışmaları	-0.330993
-4.13384	kontrollü	-0.30103
-3.95775	sağlanıyor	-0.477121
-4.13384	karayolları	-0.30103
-4.13384	müdürlüğünden	-0.30103
-3.83281	açıklamaya	-0.60206
-4.13384	anadolu	-0.30103
-4.13384	otoyolu	-0.30103
-4.13384	çaydurt	-0.30103
-4.13384	yeniçağ	-0.30103
-4.13384	kesimi	-0.30103
-3.39348	üçüncü	-0.30103
-3.83281	kilometreleri	-0.39794
-3.48063	arası	-0.30103
-3.35569	üst	-0.452298
-3.43487	yapı	-0.511883
-4.13384	iyileştirme	-0.30103
-3.95775	trafik	-0.30103
-3.23075	istanbul	-0.352183
-3.95775	istikametinde	-0.30103
-3.95775	şeritten	-0.30103
-3.32093	tek	-0.367977
-3.95775	sağlanacak	-0.477121
-4.13384	anamur	-0.30103
-4.13384	aydıncık	-0.30103
-3.95775	yolunun	-0.30103
-3.53178	dördüncü	-0.30103
-3.48063	arasındaki	-0.30103
-3.95775	çalışmalar	-0.30103
-4.13384	sürücülerin	-0.30103
-3.83281	işaret	-0.30103
-4.13384	işaretçilerine	-0.30103
-4.13384	dikkat	-0.30103
-4.13384	etmeleri	-0.30103
-3.58977	gerekiyor	-0.477121
-4.13384	manisa	-0.30103
-4.13384	akhisar	-0.30103
-3.7359	sekizinci	-0.367977
-3.95775	yol	-0.30103
-3.65672	dolayısıyla	-0.352183
-4.13384	bölünmüş	-0.30103
-3.95775	yolun	-0.30103
-4.13384	bölümünden	-0.30103
-4.13384	yönlü	-0.30103
-3.32093	bm	-0.433656
-3.83281	hitap	-0.30103
-4.13384	bölgesel	-0.30103
-3.95775	sorunlara	-0.477121
-3.95775	değindi	-0.30103
-3.53178	gelecek	-0.380211
-2.98771	yıl	-0.384004
-3.58977	yapılacak	-0.39794
-3.83281	seçimlerde	-0.39794
-3.23075	türkiyenin	-0.31627
-3.25878	güvenlik	-0.380211
-3.83281	konseyi	-0.30103
-4.13384	üyeliği	-0.30103
-3.53178	destek	-0.30103
-3.53178	istedi	-0.653213
-3.95775	konuşması	-0.477121
-3.95775	öncesinde	-0.30103
-3.35569	küresel	-0.375664
-3.7359	girişim	-0.477121
-3.95775	panelinin	-0.477121
-3.43487	türkiyede	-0.30103
-3.83281	kürtlerin	-0.30103
-3.95775	azınlık	-0.30103
-3.65672	olmadığını	-0.352183
-2.98771	söyledi	-1.44716
-3.95775	kurula	-0.30103
-4.13384	hitaben	-0.30103
-3.11265	yaptığı	-0.404571
-3.58977	konuşmasında	-0.30103
-4.13384	ortadoğuda	-0.30103
-3.95775	yaşanan	-0.30103
-4.13384	ihtilafın	-0.30103
-4.13384	sebebinin	-0.30103
-3.83281	filistin	-0.30103
-3.95775	sorunu	-0.30103
-4.13384	önceliğinin	-0.30103
-4.13384	istikrarı	-0.30103
-3.95775	sağlamak	-0.30103
-3.95775	vurgulayan	-0.30103
-4.13384	darfurda	-0.30103
-3.95775	oluşturulan	-0.30103
-3.95775	barış	-0.30103
-3.95775	gücüne	-0.30103
-3.83281	katkıda	-0.30103
-4.13384	bulunmayı	-0.30103
-4.13384	değerlendirdiklerini	-0.30103
-4.13384	kıbrıs	-0.30103
-4.13384	sorununa	-0.30103
-3.95775	değinen	-0.30103
-4.13384	sorunun	-0.30103
-4.13384	çatısı	-0.30103
-4.13384	çözülmesi	-0.30103
-3.43487	gerektiğini	-0.359022
-3.11265	belirtti	-0.778151
-4.13384	annan	-0.30103
-3.95775	planının	-0.30103
-4.13384	canlandırılmasını	-0.30103
-2.8908	ırakın	-0.405765
-3.7359	toprak	-0.367977
-4.13384	bütünlüğüne	-0.30103
-4.13384	vurgu	-0.30103
-3.43487	yaptı	-0.511883
-3.7359	ulusal	-0.30103
-3.95775	birliğini	-0.30103
-3.65672	bütünlüğünü	-0.30103
-3.95775	koruyan	-0.30103
-3.00351	ırak	-0.38818
-4.13384	desteğini	-0.30103
-4.13384	sürdürdüyor	-0.30103
-3.53178	dünyada	-0.30103
-4.13384	medeniyetler	-0.30103
-4.13384	ittifakı	-0.30103
-4.13384	terörizm	-0.30103
-4.13384	konularına	-0.30103
-4.13384	terörizmin	-0.30103
-3.95775	asıl	-0.30103
-3.95775	nedeni	-0.30103
-4.13384	cehalet	-0.30103
-4.13384	yoksulluğun	-0.30103
-3.7359	ortadan	-0.30103
-4.13384	kaldırılması	-0.30103
-3.65672	vurguladı	-0.778151
-3.7359	terörün	-0.30103
-4.13384	herkesin	-0.30103
-3.95775	güvenliğini	-0.30103
-4.13384	tehdit	-0.30103
-4.13384	etmeyi	-0.30103
-4.13384	sürdürdüğünü	-0.30103
-4.13384	vurgulayarak	-0.30103
-3.53178	dünyanın	-0.380211
-3.48063	herhangi	-0.69897
-4.13384	köşesinde	-0.30103
-4.13384	eylemi	-0.30103
-4.13384	hepimizi	-0.30103
-3.7359	hedef	-0.477121
-3.28874	alan	-0.338819
-3.95775	insanlık	-0.30103
-4.13384	suçudur	-0.30103
-3.95775	sınır	-0.30103
-4.13384	tanımayan	-0.30103
-3.83281	terörü	-0.30103
-4.13384	lanetliyor	-0.30103
-4.13384	acı	-0.30103
-4.13384	tecrübesini	-0.30103
-4.13384	bizzat	-0.30103
-4.13384	yaşamış	-0.30103
-3.39348	ülkenin	-0.324511
-3.53178	başbakanı	-0.380211
-3.53178	tüm	-0.30103
-4.13384	insanlığa	-0.30103
-3.58977	yönelik	-0.30103
-4.13384	tehditle	-0.30103
-3.58977	mücadelede	-0.30103
-4.13384	etkin	-0.30103
-3.53178	işbirliği	-0.30103
-4.13384	çağrısını	-0.30103
-4.13384	buradan	-0.30103
-4.13384	yineliyorum	-0.30103
-4.13384	odaklarının	-0.30103
-4.13384	teknolojilerden	-0.30103
-4.13384	istifade	-0.30103
-4.13384	ettikleri	-0.30103
-3.95775	dikkate	-0.30103
-4.13384	alındığında	-0.30103
-3.95775	kitle	-0.477121
-3.7359	imha	-0.477121
-3.95775	silahlarının	-0.477121
-3.95775	yayılmasının	-0.30103
-4.13384	önlenmesine	-0.30103
-2.95775	çok	-0.334454
-3.95775	taraflı	-0.30103
-4.13384	işbirliğimiz	-0.30103
-4.13384	ilave	-0.30103
-4.13384	boyut	-0.30103
-4.13384	kazanmaktadır	-0.30103
-4.13384	önlenmesi	-0.30103
-4.13384	alanında	-0.30103
-3.95775	bmnin	-0.30103
-4.13384	öncülüğündeki	-0.30103
-3.53178	uluslar	-0.90309
-4.13384	işbirliğini	-0.30103
-4.13384	desteklemektedir	-0.30103
-3.95775	kürtler	-0.30103
-2.94351	abd	-0.411442
-3.95775	bill	-0.477121
-3.65672	clinton	-0.352183
-3.95775	kurulan	-0.30103
-4.13384	panelde	-0.30103
-3.7359	konuşmada	-0.30103
-3.95775	türkiyedeki	-0.30103
-4.13384	bütünün	-0.30103
-4.13384	parçaları	-0.30103
-4.13384	dillerini	-0.30103
-4.13384	kullanma	-0.30103
-4.13384	öğrenme	-0.30103
-3.28874	konusunda	-0.30103
-3.7359	gerekli	-0.30103
-4.13384	anayasal	-0.30103
-4.13384	değişikliklerin	-0.30103
-3.95775	yapıldığını	-0.30103
-4.13384	erdoğandan	-0.30103
-4.13384	övgüyle	-0.30103
-3.39348	söz	-0.385351
-4.13384	belki	-0.30103
-2.83281	en	-0.378917
-4.13384	başarılı	-0.30103
-4.13384	politikacısı	-0.30103
-4.13384	nitelendirdi	-0.30103
-4.13384	paneli	-0.30103
-4.13384	abdli	-0.30103
-3.7359	oyuncu	-0.30103
-4.13384	brad	-0.30103
-4.13384	pitt	-0.30103
-3.7359	izledi	-0.69897
-4.13384	gürcü	-0.30103
-4.13384	kökenli	-0.30103
-4.13384	toplantıyı	-0.30103
-3.95775	yöneten	-0.30103
-4.13384	irlanda	-0.30103
-4.13384	mary	-0.30103
-4.13384	robinson	-0.30103
-4.13384	erdoğanı	-0.30103
-4.13384	tanıtırken	-0.30103
-3.53178	kısa	-0.335792
-3.83281	erdoğanın	-0.39794
-3.7359	partisinin	-0.367977
-3.35569	ikinci	-0.30103
-3.58977	geldiğini	-0.30103
-3.83281	abye	-0.30103
-3.95775	katılım	-0.30103
-4.13384	aşamasında	-0.30103
-4.13384	etnikli	-0.30103
-3.95775	toplumun	-0.30103
-4.13384	inşası	-0.30103
-3.65672	adlı	-0.30103
-4.13384	panele	-0.30103
-4.13384	kökenlerinde	-0.30103
-4.13384	gürcülük	-0.30103
-4.13384	katılmasının	-0.30103
-4.13384	hoş	-0.30103
-4.13384	tesadüf	-0.30103
-4.13384	temasları	-0.30103
-3.48063	kapsamında	-0.330993
-4.13384	dünyası	-0.30103
-4.13384	temsilcileriyle	-0.30103
-3.83281	araya	-0.39794
-3.28874	gelen	-0.361728
-3.7359	merkezi	-0.30103
-4.13384	geleneksel	-0.30103
-4.13384	dostluk	-0.30103
-4.13384	yemeğine	-0.30103
-4.13384	yemekte	-0.30103
-3.65672	demokrat	-0.544068
-4.13384	partide	-0.30103
-3.7359	başkan	-0.30103
-4.13384	adaylığı	-0.30103
-4.13384	yarışan	-0.30103
-4.13384	hillary	-0.30103
-3.95775	konuşma	-0.30103
-3.25878	amerikan	-0.335792
-4.13384	ilişkilerinin	-0.30103
-4.13384	güçlendiğini	-0.30103
-3.95775	temaslarını	-0.30103
-4.13384	değerlendireceği	-0.30103
-3.83281	basın	-0.30103
-3.95775	toplantısı	-0.30103
-4.13384	düzenleyecek	-0.30103
-3.03693	devlet	-0.477121
-3.95775	memurları	-0.30103
-3.95775	sözleşmeli	-0.477121
-3.53178	personel	-0.30103
-4.13384	işçiler	-0.30103
-3.48063	kamu	-0.414973
-4.13384	personelinin	-0.30103
-3.28874	ekim	-0.419129
-3.95775	maaşları	-0.30103
-4.13384	bayramı	-0.30103
-3.95775	ekimde	-0.30103
-3.7359	avans	-0.367977
-3.95775	ödenecek	-0.30103
-3.65672	sen	-0.352183
-3.7359	sekreteri	-0.367977
-3.7359	azizoğlu	-0.30103
-3.39348	erken	-0.385351
-3.83281	maaş	-0.39794
-3.83281	tuzağı	-0.60206
-3.65672	olabilir	-0.425969
-3.83281	uyarısında	-0.39794
-3.43487	bulundu	-1
-3.95775	maliye	-0.477121
-3.53178	bakanı	-0.335792
-3.65672	kemal	-0.352183
-4.13384	unakıtan	-0.30103
-3.95775	imzasıyla	-0.30103
-3.83281	yayımlanan	-0.30103
-4.13384	genelgeye	-0.30103
-4.13384	aylıklarını	-0.30103
-4.13384	kanunlarına	-0.30103
-4.13384	almakta	-0.30103
-4.13384	görevlilerine	-0.30103
-3.95775	ödenmesi	-0.30103
-4.13384	hakedişleri	-0.30103
-4.13384	kanununa	-0.30103
-3.83281	verilecek	-0.60206
-4.13384	kuruluşlarında	-0.30103
-3.95775	çalışan	-0.30103
-4.13384	işçi	-0.30103
-3.7359	hakkında	-0.30103
-3.58977	şekilde	-0.30103
-3.83281	işlem	-0.39794
-4.13384	avansın	-0.30103
-4.13384	hesabında	-0.30103
-3.53178	ele	-0.335792
-4.13384	net	-0.30103
-4.13384	tutarlar	-0.30103
-4.13384	esas	-0.30103
-3.95775	alınacak	-0.30103
-4.13384	aylıkları	-0.30103
-3.95775	banka	-0.30103
-4.13384	hesaplarına	-0.30103
-4.13384	aktarılan	-0.30103
-3.95775	personelin	-0.30103
-4.13384	tutarlarının	-0.30103
-4.13384	bankalarca	-0.30103
-4.13384	zamanında	-0.30103
-4.13384	genelge	-0.30103
-4.13384	uyarınca	-0.30103
-3.7359	verilen	-0.30103
-4.13384	avanslar	-0.30103
-4.13384	avansları	-0.30103
-3.95775	hesabına	-0.30103
-4.13384	borç	-0.30103
-4.13384	kaydedilerek	-0.30103
-4.13384	muhasebeleştirilecek	-0.30103
-4.13384	ödenen	-0.30103
-4.13384	tutarları	-0.30103
-4.13384	ilgililerin	-0.30103
-3.35569	ait	-0.30103
-3.53178	aylık	-0.380211
-3.35569	veya	-0.30103
-4.13384	ücretlerine	-0.30103
-4.13384	mahsup	-0.30103
-3.95775	kanuni	-0.30103
-4.13384	kesintiler	-0.30103
-4.13384	ücretlerinden	-0.30103
-4.13384	memurların	-0.30103
-4.13384	bayramdan	-0.30103
-4.13384	alacakları	-0.30103
-4.13384	maaşlarıyla	-0.30103
-3.25878	gün	-0.380211
-4.13384	geçinmek	-0.30103
-3.83281	zorunda	-0.30103
-3.7359	olduklarını	-0.30103
-4.13384	hatırlatarak	-0.30103
-3.95775	hükümetin	-0.30103
-4.13384	memurlara	-0.30103
-3.48063	bayram	-0.564271
-3.65672	öncesi	-0.30103
-4.13384	piyasaları	-0.30103
-4.13384	canlandırmak	-0.30103
-4.13384	ödediğini	-0.30103
-3.83281	ileri	-0.39794
-3.7359	sürdü	-0.477121
-4.13384	maaşlar	-0.30103
-3.95775	çünkü	-0.30103
-3.95775	piyasalar	-0.30103
-4.13384	durgun	-0.30103
-4.13384	kriz	-0.30103
-3.58977	var	-0.477121
-3.95775	memur	-0.30103
-3.83281	yapacak	-0.60206
-4.13384	piyasalara	-0.30103
-4.13384	yaşattığı	-0.30103
-4.13384	krizi	-0.30103
-4.13384	harçlığı	-0.30103
-4.13384	rahatlatacak	-0.30103
-3.95775	sayın	-0.30103
-4.13384	ortalığı	-0.30103
-4.13384	bulandırmak	-0.30103
-4.13384	insanların	-0.30103
-4.13384	kafasını	-0.30103
-3.95775	karıştırarak	-0.30103
-4.13384	popülizm	-0.30103
-3.65672	yapmak	-0.30103
-3.83281	istiyor	-0.39794
-3.83281	diyen	-0.30103
-4.13384	güya	-0.30103
-3.95775	memurun	-0.30103
-4.13384	gönlünü	-0.30103
-3.58977	alıyor	-0.60206
-3.7359	iyilik	-0.367977
-3.7359	yapıyor	-0.477121
-3.95775	yapacaksa	-0.30103
-4.13384	memuru	-0.30103
-4.13384	açlıktan	-0.30103
-4.13384	yoksulluktan	-0.30103
-4.13384	kurtaracak	-0.30103
-4.13384	ücret	-0.30103
-3.95775	versin	-0.477121
-4.13384	maaşını	-0.30103
-4.13384	ödemek	-0.30103
-4.13384	işçilere	-0.30103
-3.95775	verdiği	-0.30103
-4.13384	iyiliği	-0.30103
-3.95775	ağustostan	-0.30103
-3.43487	itibaren	-0.30103
-4.13384	sürdürülen	-0.30103
-4.13384	kendisinin	-0.30103
-4.13384	telefonla	-0.30103
-4.13384	idare	-0.30103
-3.53178	ettiği	-0.30103
-3.95775	toplu	-0.30103
-3.95775	görüşmelerde	-0.30103
-4.13384	gösterdiği	-0.30103
-4.13384	aksiliği	-0.30103
-4.13384	bırakarak	-0.30103
-4.13384	yapsın	-0.30103
-3.83281	bundesliga	-0.39794
-4.13384	takımlarından	-0.30103
-4.13384	schalkede	-0.30103
-4.13384	oynayan	-0.30103
-3.7359	halil	-0.367977
-3.95775	altıntop	-0.30103
-4.13384	sakatlığı	-0.30103
-3.83281	yüzünden	-0.30103
-3.53178	yaklaşık	-0.335792
-4.13384	sahalardan	-0.30103
-4.13384	uzak	-0.30103
-4.13384	kalacak	-0.30103
-4.13384	schalkenin	-0.30103
-3.7359	hertha	-0.477121
-3.95775	berlini	-0.477121
-3.09245	sıfır	-0.463757
-3.83281	yendiği	-0.39794
-3.48063	hafta	-0.367977
-3.7359	maçında	-0.30103
-4.13384	sakatlanan	-0.30103
-4.13384	takımdaki	-0.30103
-4.13384	alamayacak	-0.30103
-3.48063	sezon	-0.330993
-3.65672	ligde	-0.352183
-3.95775	golü	-0.30103
-3.58977	milli	-0.30103
-3.95775	futbolcunun	-0.30103
-4.13384	sol	-0.30103
-4.13384	bacağında	-0.30103
-4.13384	kas	-0.30103
-4.13384	lifi	-0.30103
-4.13384	yırtılması	-0.30103
-3.53178	meydana	-0.439333
-3.83281	geldiği	-0.30103
-3.95775	berlin	-0.30103
-3.95775	oynanan	-0.30103
-4.13384	maçın	-0.30103
-4.13384	dokuzuncu	-0.30103
-4.13384	dakikasında	-0.30103
-4.13384	sakatlanarak	-0.30103
-3.95775	peter	-0.30103
-4.13384	lövenkrandsa	-0.30103
-3.95775	bırakmıştı	-0.477121
-4.13384	ingilterede	-0.30103
-3.95775	süpermarket	-0.30103
-4.13384	zinciri	-0.30103
-4.13384	başlatılan	-0.30103
-4.13384	uygulamada	-0.30103
-3.65672	müslüman	-0.30103
-4.13384	kasiyerlere	-0.30103
-3.83281	alkollü	-0.39794
-3.95775	içecek	-0.30103
-4.13384	müşterinin	-0.30103
-4.13384	içkisine	-0.30103
-3.53178	el	-0.439333
-4.13384	sürmeyip	-0.30103
-3.53178	başka	-0.380211
-3.95775	mesai	-0.30103
-4.13384	arkadaşına	-0.30103
-3.95775	devretme	-0.477121
-3.65672	hakkı	-0.30103
-4.13384	verileceği	-0.30103
-3.7359	açıklandı	-0.69897
-4.13384	kasiyerlerine	-0.30103
-4.13384	bira	-0.30103
-4.13384	şarap	-0.30103
-3.58977	ya	-0.60206
-4.13384	içecekleri	-0.30103
-4.13384	satın	-0.30103
-3.58977	almak	-0.342423
-3.83281	isteyen	-0.39794
-4.13384	müşteriyle	-0.30103
-4.13384	karşılaştıklarında	-0.30103
-4.13384	arkadaşlarına	-0.30103
-4.13384	yerlerini	-0.30103
-4.13384	tanıyan	-0.30103
-3.95775	sainsburys	-0.30103
-4.13384	süpermarketinin	-0.30103
-3.7359	ayrıca	-0.30103
-4.13384	rafları	-0.30103
-4.13384	düzenleyen	-0.30103
-4.13384	çalışanlar	-0.30103
-4.13384	müslümanlara	-0.30103
-3.95775	içki	-0.30103
-4.13384	reyonunda	-0.30103
-3.58977	görev	-0.30103
-4.13384	vermeyeceği	-0.30103
-3.83281	kuzey	-0.30103
-4.13384	londradaki	-0.30103
-4.13384	mağazalarında	-0.30103
-3.95775	uygulamayı	-0.30103
-3.95775	başlattıklarını	-0.30103
-3.95775	açıklayan	-0.30103
-3.83281	yetkilileri	-0.30103
-3.95775	uygulamanın	-0.30103
-3.95775	geçerli	-0.30103
-3.95775	olacağı	-0.30103
-4.13384	şubeler	-0.30103
-3.48063	karar	-0.367977
-4.13384	verme	-0.30103
-4.13384	yetkisinin	-0.30103
-4.13384	mağaza	-0.30103
-4.13384	yöneticilerine	-0.30103
-4.13384	bırakıldığını	-0.30103
-3.58977	bildirdi	-0.845098
-3.95775	çalışanları	-0.30103
-4.13384	şubelerdeki	-0.30103
-4.13384	yöneticiler	-0.30103
-4.13384	başlatma	-0.30103
-4.13384	yetkisine	-0.30103
-3.65672	sahip	-0.352183
-3.43487	olacak	-0.39794
-3.83281	sözcüsü	-0.30103
-4.13384	konularda	-0.30103
-3.95775	esnek	-0.30103
-3.95775	tutum	-0.30103
-4.13384	olmaya	-0.30103
-3.7359	dini	-0.30103
-4.13384	gereksinimleri	-0.30103
-3.83281	mümkün	-0.30103
-4.13384	olduğunca	-0.30103
-4.13384	karşılamaya	-0.30103
-4.13384	çalışacaklarını	-0.30103
-4.13384	belirtirken	-0.30103
-4.13384	katı	-0.30103
-4.13384	kuralları	-0.30103
-4.13384	bulunmadığına	-0.30103
-3.83281	ingiltere	-0.30103
-3.23075	islam	-0.352183
-4.13384	inayet	-0.30103
-3.95775	bunglavala	-0.30103
-3.39348	açıklamada	-0.324511
-3.95775	aslında	-0.30103
-4.13384	müslümanın	-0.30103
-3.95775	alkol	-0.30103
-4.13384	satarak	-0.30103
-3.95775	günah	-0.477121
-3.83281	işlemiş	-0.30103
-4.13384	olmayacağını	-0.30103
-3.53178	aldığı	-0.30103
-4.13384	ücretin	-0.30103
-4.13384	gerektirdiği	-0.30103
-4.13384	sorumluluğu	-0.30103
-4.13384	getirdiğini	-0.30103
-3.95775	market	-0.30103
-4.13384	çalışanlarının	-0.30103
-4.13384	ellerine	-0.30103
-4.13384	şişesini	-0.30103
-4.13384	barkodunu	-0.30103
-4.13384	okutacak	-0.30103
-3.03693	kadar	-0.320335
-3.83281	sürede	-0.30103
-4.13384	ellerinde	-0.30103
-4.13384	tutarak	-0.30103
-4.13384	olmayacaklarını	-0.30103
-3.95775	gazete	-0.30103
-4.13384	yazarı	-0.30103
-4.13384	mckay	-0.30103
-4.13384	makalesinde	-0.30103
-3.48063	böyle	-0.414973
-4.13384	ırklar	-0.30103
-3.23075	arasında	-0.333215
-4.13384	uyuma	-0.30103
-3.95775	hizmet	-0.30103
-3.95775	edip	-0.477121
-3.95775	etmeyeceği	-0.30103
-4.13384	sorusunu	-0.30103
-4.13384	sorarken	-0.30103
-3.95775	elini	-0.30103
-4.13384	şişesine	-0.30103
-4.13384	sürme	-0.30103
-4.13384	olanlar	-0.30103
-3.95775	satan	-0.30103
-4.13384	başvurmamalılar	-0.30103
-3.83281	yazar	-0.30103
-4.13384	sağduyulu	-0.30103
-3.95775	müslümanların	-0.30103
-3.7359	düşündüklerini	-0.30103
-4.13384	uygulama	-0.30103
-4.13384	görüşlerini	-0.30103
-4.13384	yöneticilerinin	-0.30103
-4.13384	kuruluşlarının	-0.30103
-3.95775	temsilcilerinin	-0.30103
-4.13384	açıklamalarına	-0.30103
-3.15612	yer	-0.447158
-4.13384	oscar	-0.30103
-4.13384	ödüllü	-0.30103
-3.7359	amerikalı	-0.30103
-3.95775	film	-0.30103
-4.13384	yıldızı	-0.30103
-4.13384	angelina	-0.30103
-3.53178	jolie	-0.30103
-3.7359	savaşı	-0.30103
-3.83281	yönetimini	-0.30103
-4.13384	topa	-0.30103
-4.13384	tuttu	-0.30103
-3.58977	george	-0.477121
-3.95775	w	-0.477121
-3.43487	bush	-0.39794
-3.58977	ağır	-0.30103
-3.83281	dille	-0.30103
-3.95775	eleştiren	-0.30103
-3.95775	niyet	-0.477121
-3.7359	elçisi	-0.30103
-3.95775	hükümetinin	-0.30103
-3.95775	silahlara	-0.30103
-4.13384	harcadığı	-0.30103
-3.83281	para	-0.30103
-4.13384	eğitime	-0.30103
-4.13384	harcansa	-0.30103
-3.95775	mı	-0.30103
-4.13384	başkanlarından	-0.30103
-4.13384	girişiminde	-0.30103
-3.58977	konuşan	-0.30103
-3.95775	konuları	-0.30103
-4.13384	ağırlıklı	-0.30103
-3.95775	ülkesinin	-0.30103
-4.13384	politikasını	-0.30103
-3.95775	sorunlar	-0.30103
-4.13384	öncelik	-0.30103
-4.13384	sırasına	-0.30103
-4.13384	çözülmeli	-0.30103
-4.13384	yaşadığı	-0.30103
-3.13384	büyük	-0.372386
-4.13384	sorunlardan	-0.30103
-4.13384	ikisi	-0.30103
-3.65672	savaş	-0.352183
-4.13384	eğitimsizlik	-0.30103
-4.13384	unıcefin	-0.30103
-4.13384	abdden	-0.30103
-3.95775	istediği	-0.30103
-3.95775	maddi	-0.477121
-3.58977	yardım	-0.342423
-3.95775	harcanan	-0.30103
-3.95775	paralar	-0.30103
-4.13384	beklenenin	-0.30103
-3.58977	ünlü	-0.30103
-3.95775	katılacağı	-0.30103
-4.13384	paneldeki	-0.30103
-4.13384	istenilen	-0.30103
-4.13384	toplamı	-0.30103
-3.65672	ırakta	-0.30103
-4.13384	saatte	-0.30103
-4.13384	paraya	-0.30103
-3.95775	eşit	-0.477121
-3.65672	yani	-0.30103
-3.83281	birkaç	-0.39794
-4.13384	saatlik	-0.30103
-4.13384	savaşın	-0.30103
-3.95775	maliyeti	-0.30103
-3.83281	çocuğun	-0.30103
-3.83281	okula	-0.30103
-4.13384	gidebilmek	-0.30103
-4.13384	gerek	-0.30103
-4.13384	duyduğu	-0.30103
-4.13384	maliyete	-0.30103
-4.13384	denk	-0.30103
-4.13384	gönülleri	-0.30103
-4.13384	kazandıran	-0.30103
-4.13384	özgürlük	-0.30103
-3.53178	veren	-0.30103
-3.65672	şey	-0.30103
-3.35569	yok	-0.50515
-3.7359	sorunları	-0.30103
-4.13384	azaltmanın	-0.30103
-3.65672	yolu	-0.352183
-4.13384	eğitimden	-0.30103
-4.13384	çocukları	-0.30103
-4.13384	eğitmekten	-0.30103
-4.13384	geçer	-0.30103
-3.83281	washington	-0.39794
-3.83281	yönetiminden	-0.39794
-3.65672	utanç	-0.425969
-4.13384	duyuyorum	-0.30103
-3.7359	geçtiğimiz	-0.30103
-3.7359	hakları	-0.477121
-3.7359	sözleşmesini	-0.30103
-4.13384	resmen	-0.30103
-4.13384	onaylamamakta	-0.30103
-4.13384	ısrar	-0.30103
-4.13384	duyduğunu	-0.30103
-3.83281	söylemişti	-0.60206
-4.13384	isviçrenin	-0.30103
-4.13384	davos	-0.30103
-4.13384	kasabasında	-0.30103
-3.43487	dünya	-0.327359
-3.7359	ekonomik	-0.30103
-4.13384	forumunda	-0.30103
-3.58977	yapan	-0.30103
-4.13384	washingtonun	-0.30103
-4.13384	onaylamamış	-0.30103
-3.83281	olmasını	-0.30103
-4.13384	kızartıcı	-0.30103
-3.83281	verici	-0.39794
-4.13384	buluyorum	-0.30103
-3.83281	demişti	-0.60206
-4.13384	davostaki	-0.30103
-4.13384	konuşmasına	-0.30103
-4.13384	sözleşmeyi	-0.30103
-4.13384	imzalayan	-0.30103
-4.13384	kongrede	-0.30103
-4.13384	onaylamayan	-0.30103
-4.13384	sert	-0.30103
-4.13384	eleştiri	-0.30103
-4.13384	yağmuruna	-0.30103
-4.13384	tutmuş	-0.30103
-4.13384	olmanın	-0.30103
-4.13384	korkunç	-0.30103
-3.83281	düşünüyorum	-0.60206
-4.13384	kongre	-0.30103
-3.65672	an	-0.352183
-4.13384	imzalayarak	-0.30103
-4.13384	amerikalıları	-0.30103
-4.13384	utançtan	-0.30103
-4.13384	kurtarmalı	-0.30103
-3.7359	çocuklar	-0.477121
-3.95775	gerçekten	-0.30103
-4.13384	önemseniyorsa	-0.30103
-4.13384	sözleşmenin	-0.30103
-4.13384	onaylanmamasına	-0.30103
-3.7359	nasıl	-0.30103
-4.13384	cesaret	-0.30103
-4.13384	edilir	-0.30103
-4.13384	anlayamıyorum	-0.30103
-3.95775	protokol	-0.477121
-3.95775	üzerindeki	-0.30103
-4.13384	karakolun	-0.30103
-3.7359	önünde	-0.30103
-3.65672	patlamaya	-0.352183
-3.48063	hazır	-0.330993
-3.95775	litrelik	-0.30103
-3.95775	yangın	-0.477121
-3.95775	söndürme	-0.477121
-3.95775	tüpü	-0.30103
-3.95775	içine	-0.30103
-4.13384	hazırlanmış	-0.30103
-3.83281	düzeneği	-0.30103
-4.13384	patlamasına	-0.30103
-3.7359	dakika	-0.367977
-3.95775	kala	-0.477121
-3.58977	etkisiz	-0.845098
-3.58977	hale	-0.342423
-3.95775	getirildi	-0.477121
-4.13384	bilinen	-0.30103
-4.13384	esenboğa	-0.30103
-3.53178	hava	-0.335792
-3.58977	limanı	-0.30103
-4.13384	hamdi	-0.30103
-4.13384	yahyaoğlu	-0.30103
-4.13384	karakolu	-0.30103
-4.13384	sabaha	-0.30103
-4.13384	çöp	-0.30103
-4.13384	bidonu	-0.30103
-4.13384	çöpçülerin	-0.30103
-4.13384	karakoldakilere	-0.30103
-3.58977	haber	-0.30103
-3.7359	olay	-0.30103
-3.95775	uzmanları	-0.30103
-4.13384	çağırıldı	-0.30103
-4.13384	uzmanlarının	-0.30103
-3.7359	sonunda	-0.30103
-4.13384	hazırlanılmış	-0.30103
-4.13384	düzenek	-0.30103
-4.13384	fünye	-0.30103
-4.13384	kullanılarak	-0.30103
-4.13384	patlatıldı	-0.30103
-3.83281	yetkililer	-0.30103
-4.13384	bombanın	-0.30103
-4.13384	getirildiğini	-0.30103
-4.13384	belirttiler	-0.30103
-4.13384	getirilen	-0.30103
-3.48063	üzerinde	-0.330993
-4.13384	incelemede	-0.30103
-4.13384	tozdan	-0.30103
-3.95775	oluşan	-0.30103
-3.48063	madde	-0.330993
-4.13384	kullanıldığı	-0.30103
-4.13384	detaylı	-0.30103
-3.7359	inceleme	-0.30103
-4.13384	kriminal	-0.30103
-3.28874	polis	-0.38818
-4.13384	laboratuvarına	-0.30103
-3.95775	gönderildi	-0.477121
-3.83281	örgüt	-0.30103
-4.13384	bağlantısı	-0.30103
-3.95775	olabileceği	-0.30103
-4.13384	kuşkusu	-0.30103
-3.83281	soruşturma	-0.30103
-3.65672	savunma	-0.352183
-3.83281	bakanlığı	-0.30103
-4.13384	pentagon	-0.30103
-4.13384	ıraka	-0.30103
-3.83281	aralarında	-0.30103
-4.13384	araçlar	-0.30103
-3.95775	mühimmat	-0.30103
-3.65672	patlayıcı	-0.425969
-3.95775	iletişim	-0.30103
-4.13384	teçhizatı	-0.30103
-3.65672	olmak	-0.544068
-3.48063	üzere	-0.367977
-3.65672	toplam	-0.30103
-3.07314	milyar	-0.452298
-3.15612	dolar	-0.359022
-4.13384	değerinde	-0.30103
-3.7359	silah	-0.30103
-4.13384	satmaya	-0.30103
-4.13384	kongreye	-0.30103
-3.83281	açıklama	-0.30103
-3.35569	abdnin	-0.322219
-4.13384	aşırı	-0.30103
-3.95775	yabancı	-0.30103
-4.13384	satışlarını	-0.30103
-4.13384	denetleyen	-0.30103
-4.13384	ajansından	-0.30103
-3.48063	geldi	-0.69897
-3.95775	anlaşma	-0.30103
-4.13384	textron	-0.30103
-4.13384	firmasına	-0.30103
-4.13384	bell	-0.30103
-4.13384	helikopter	-0.30103
-4.13384	üretilen	-0.30103
-4.13384	uh	-0.30103
-4.13384	helikopterinin	-0.30103
-4.13384	yenilenmesini	-0.30103
-4.13384	içeriyor	-0.30103
-3.95775	ajansı	-0.30103
-3.95775	açıklamasında	-0.30103
-4.13384	firma	-0.30103
-4.13384	vermedi	-0.30103
-4.13384	satış	-0.30103
-3.95775	önerisi	-0.30103
-3.58977	ıraktaki	-0.30103
-4.13384	yatırım	-0.30103
-4.13384	anlaşmalarının	-0.30103
-3.95775	engel	-0.30103
-4.13384	oluşturmadığını	-0.30103
-3.95775	suriye	-0.30103
-4.13384	lübnanın	-0.30103
-3.95775	hak	-0.30103
-3.39348	iddia	-0.425969
-3.35569	israil	-0.322219
-4.13384	işgalindeki	-0.30103
-3.95775	şebaa	-0.30103
-4.13384	çiftlikleri	-0.30103
-4.13384	bölgesinin	-0.30103
-4.13384	kontrolünün	-0.30103
-4.13384	gözetimine	-0.30103
-4.13384	bırakılmasını	-0.30103
-4.13384	etmeye	-0.30103
-4.13384	olduğunun	-0.30103
-4.13384	sinyalini	-0.30103
-4.13384	suriyenin	-0.30103
-4.13384	konudaki	-0.30103
-3.95775	ispanya	-0.30103
-3.28874	dış	-0.628389
-3.53178	işleri	-0.30103
-4.13384	miguel	-0.30103
-4.13384	angel	-0.30103
-4.13384	moratinosa	-0.30103
-4.13384	iletildi	-0.30103
-4.13384	öneriyi	-0.30103
-4.13384	ban	-0.30103
-3.53178	ki	-0.335792
-4.13384	muna	-0.30103
-4.13384	iletti	-0.30103
-3.65672	ab	-0.30103
-3.95775	ortadoğu	-0.30103
-4.13384	moratinosun	-0.30103
-3.95775	konuyu	-0.30103
-4.13384	beşşar	-0.30103
-4.13384	esad	-0.30103
-4.13384	tartıştıktan	-0.30103
-4.13384	sekretere	-0.30103
-3.83281	mektup	-0.39794
-3.95775	gönderdiği	-0.30103
-4.13384	lübnanda	-0.30103
-3.83281	faaliyet	-0.39794
-3.95775	gösteren	-0.30103
-4.13384	hizbullah	-0.30103
-4.13384	bölgenin	-0.30103
-4.13384	işgali	-0.30103
-3.7359	ülkeye	-0.367977
-3.58977	saldırıları	-0.342423
-4.13384	haklı	-0.30103
-4.13384	göstermek	-0.30103
-4.13384	kullanıyor	-0.30103
-3.95775	ehud	-0.477121
-3.7359	olmert	-0.30103
-4.13384	şebaanın	-0.30103
-4.13384	statüsünü	-0.30103
-3.95775	tartışmaya	-0.30103
-3.7359	bunun	-0.30103
-4.13384	hizbullahın	-0.30103
-4.13384	silahsızlanması	-0.30103
-4.13384	çiftliklerini	-0.30103
-3.95775	suriyeden	-0.30103
-3.39348	yılında	-0.324511
-4.13384	almıştı	-0.30103
-3.83281	japonyada	-0.30103
-3.7359	şimdiye	-0.69897
-3.95775	risk	-0.30103
-4.13384	altındaki	-0.30103
-3.53178	işletme	-0.439333
-3.95775	kurumlara	-0.30103
-4.13384	yönlendirilen	-0.30103
-4.13384	deprem	-0.30103
-4.13384	uyarılarını	-0.30103
-3.95775	artık	-0.30103
-4.13384	japonlar	-0.30103
-4.13384	alacak	-0.30103
-3.95775	depremin	-0.30103
-4.13384	alarm	-0.30103
-4.13384	radyolar	-0.30103
-4.13384	tvler	-0.30103
-4.13384	sokaklardaki	-0.30103
-4.13384	hoparlörler	-0.30103
-4.13384	cep	-0.30103
-4.13384	telefonu	-0.30103
-4.13384	internet	-0.30103
-4.13384	sistemlerle	-0.30103
-3.95775	depremi	-0.30103
-3.83281	önceden	-0.39794
-3.95775	verecek	-0.30103
-4.13384	sistem	-0.30103
-4.13384	geliştirme	-0.30103
-4.13384	yıllardır	-0.30103
-3.95775	yapılıyor	-0.477121
-4.13384	geliştirilen	-0.30103
-3.95775	uyarı	-0.477121
-3.7359	sistemi	-0.30103
-4.13384	sarsıntıyla	-0.30103
-3.95775	açığa	-0.30103
-4.13384	zararsız	-0.30103
-3.95775	p	-0.477121
-3.83281	dalgalarını	-0.30103
-3.83281	saniye	-0.30103
-4.13384	verebiliyor	-0.30103
-4.13384	onlardan	-0.30103
-3.95775	kat	-0.30103
-4.13384	hızla	-0.30103
-4.13384	hareket	-0.30103
-4.13384	s	-0.30103
-4.13384	dalgaları	-0.30103
-3.48063	takip	-0.330993
-3.48063	ediyor	-0.954243
-4.13384	işte	-0.30103
-4.13384	dalgalar	-0.30103
-3.95775	yıkıcı	-0.30103
-3.83281	oluyor	-0.39794
-4.13384	alarmla	-0.30103
-4.13384	sarsıntının	-0.30103
-4.13384	hissedilmesi	-0.30103
-4.13384	olmasa	-0.30103
-4.13384	kısıtlı	-0.30103
-3.48063	zaman	-0.30103
-3.7359	özellikle	-0.30103
-3.43487	nükleer	-0.30103
-4.13384	santral	-0.30103
-3.95775	demiryolu	-0.477121
-4.13384	inşaat	-0.30103
-3.95775	şirketi	-0.30103
-3.95775	taşıyan	-0.30103
-3.83281	faaliyetlerini	-0.30103
-4.13384	derhal	-0.30103
-4.13384	durdurma	-0.30103
-4.13384	imkanı	-0.30103
-4.13384	veriyor	-0.30103
-4.13384	japon	-0.30103
-4.13384	uzmanlar	-0.30103
-4.13384	verilmesiyle	-0.30103
-3.83281	bile	-0.30103
-3.48063	can	-0.30103
-4.13384	kaybının	-0.30103
-2.97247	doksan	-0.457377
-3.95775	azalacağını	-0.30103
-4.13384	düşünüyor	-0.30103
-3.7359	sık	-0.367977
-3.83281	küçük	-0.30103
-4.13384	depremlerle	-0.30103
-4.13384	sarsılan	-0.30103
-3.65672	halkı	-0.352183
-4.13384	panikletmemek	-0.30103
-3.58977	amacıyla	-0.30103
-4.13384	depremlerden	-0.30103
-3.7359	dünyadaki	-0.367977
-4.13384	depremlerin	-0.30103
-4.13384	beşte	-0.30103
-3.83281	biri	-0.39794
-4.13384	elçiliğini	-0.30103
-4.13384	elçilik	-0.30103
-4.13384	personelini	-0.30103
-3.7359	özel	-0.30103
-3.95775	blackwaterın	-0.30103
-3.58977	te	-0.342423
-3.95775	çalışanının	-0.30103
-3.83281	linç	-0.30103
-4.13384	edilmesinin	-0.30103
-3.83281	ordusunun	-0.30103
-4.13384	fellucedeki	-0.30103
-4.13384	kanlı	-0.30103
-4.13384	operasyonunun	-0.30103
-4.13384	başlamasına	-0.30103
-3.7359	neden	-0.30103
-3.58977	ortaya	-0.342423
-3.83281	blackwater	-0.30103
-4.13384	şirketinin	-0.30103
-3.05466	son	-0.332438
-3.83281	ıraklı	-0.39794
-3.83281	sivilin	-0.30103
-3.83281	öldürülmesi	-0.30103
-4.13384	olayında	-0.30103
-4.13384	geçmişti	-0.30103
-3.83281	temsilciler	-0.39794
-4.13384	meclisinin	-0.30103
-3.83281	komisyonu	-0.30103
-3.58977	raporda	-0.30103
-3.58977	mart	-0.342423
-4.13384	fellucede	-0.30103
-4.13384	korudukları	-0.30103
-4.13384	aracına	-0.30103
-3.95775	saldırıdan	-0.30103
-4.13384	kalabalık	-0.30103
-4.13384	edilmelerini	-0.30103
-4.13384	takiben	-0.30103
-4.13384	felluceye	-0.30103
-3.95775	düzenlediği	-0.30103
-3.7359	süren	-0.30103
-4.13384	askerinin	-0.30103
-4.13384	direnişçiyle	-0.30103
-3.95775	öldüğü	-0.30103
-4.13384	hatırlatıldı	-0.30103
-4.13384	görüntüleri	-0.30103
-4.13384	gösterilen	-0.30103
-3.95775	olaya	-0.30103
-4.13384	dair	-0.30103
-4.13384	direnişçilerin	-0.30103
-4.13384	faaliyetlerinin	-0.30103
-3.83281	yoğun	-0.39794
-3.65672	etkili	-0.30103
-3.48063	bölgeye	-0.564271
-4.13384	ekip	-0.30103
-4.13384	göndermeden	-0.30103
-3.95775	yeterince	-0.30103
-4.13384	hazırlanmadığı	-0.30103
-3.95775	yeterli	-0.30103
-4.13384	kaynağa	-0.30103
-4.13384	olmadığı	-0.30103
-4.13384	personeli	-0.30103
-3.95775	desteği	-0.30103
-4.13384	sağlamadığı	-0.30103
-4.13384	görevi	-0.30103
-4.13384	riskleri	-0.30103
-4.13384	almadan	-0.30103
-4.13384	ekibini	-0.30103
-4.13384	malzeme	-0.30103
-4.13384	tavsiyeler	-0.30103
-3.95775	istihbarat	-0.30103
-3.95775	bakımından	-0.30103
-4.13384	donatmadan	-0.30103
-4.13384	etmiştir	-0.30103
-4.13384	ifadelere	-0.30103
-4.13384	yaşanmayabilirdi	-0.30103
-3.95775	azından	-0.30103
-4.13384	riskler	-0.30103
-4.13384	azaltılabilirdi	-0.30103
-3.83281	denildi	-0.60206
-4.13384	davranışın	-0.30103
-3.95775	çatışma	-0.30103
-3.83281	bölgelerinde	-0.30103
-4.13384	şirketlere	-0.30103
-4.13384	başvurulmasının	-0.30103
-3.95775	sonuçları	-0.30103
-3.53178	ciddi	-0.380211
-3.95775	beraberinde	-0.30103
-4.13384	vurgulandı	-0.30103
-4.13384	raporun	-0.30103
-4.13384	bağdatta	-0.30103
-4.13384	ölümüyle	-0.30103
-4.13384	sonuçlanan	-0.30103
-4.13384	olaydan	-0.30103
-4.13384	yayımlandığı	-0.30103
-3.83281	belirtiliyor	-0.60206
-4.13384	erkeklerde	-0.30103
-4.13384	numarası	-0.30103
-3.95775	roger	-0.477121
-3.95775	federer	-0.30103
-3.35569	japonya	-0.669007
-3.43487	açık	-0.359022
-4.13384	tenis	-0.30103
-3.95775	turnuvasından	-0.30103
-4.13384	çekildiğini	-0.30103
-3.58977	açıkladı	-0.845098
-4.13384	isviçreli	-0.30103
-3.95775	raket	-0.30103
-4.13384	açıktan	-0.30103
-4.13384	çekilmek	-0.30103
-4.13384	kaldığım	-0.30103
-4.13384	üzgünüm	-0.30103
-4.13384	fikstür	-0.30103
-3.65672	ben	-0.30103
-3.95775	fiziksel	-0.30103
-4.13384	olduğumu	-0.30103
-4.13384	söyleyemem	-0.30103
-4.13384	federerin	-0.30103
-3.7359	kararı	-0.30103
-4.13384	doktorunun	-0.30103
-4.13384	tavsiyesi	-0.30103
-4.13384	sakatlıklardan	-0.30103
-4.13384	korunmak	-0.30103
-4.13384	finalinde	-0.30103
-3.65672	ingiliz	-0.30103
-4.13384	tim	-0.30103
-4.13384	henmana	-0.30103
-3.95775	lük	-0.30103
-3.95775	setlerle	-0.30103
-4.13384	yenilmişti	-0.30103
-3.95775	pazartesi	-0.477121
-3.65672	günü	-0.30103
-3.95775	başlıyor	-0.477121
-4.13384	mihail	-0.30103
-4.13384	gorbaçov	-0.30103
-4.13384	sovyetler	-0.30103
-3.95775	başkanlığını	-0.30103
-4.13384	üstlendi	-0.30103
-4.13384	sadrazam	-0.30103
-4.13384	nevşehirli	-0.30103
-4.13384	ibrahim	-0.30103
-4.13384	paşa	-0.30103
-4.13384	patrona	-0.30103
-4.13384	isyanını	-0.30103
-4.13384	çıkaranların	-0.30103
-4.13384	istekleri	-0.30103
-4.13384	doğrultusunda	-0.30103
-4.13384	padişah	-0.30103
-3.95775	ııı	-0.477121
-4.13384	boğduruldu	-0.30103
-3.83281	ressam	-0.30103
-4.13384	ruhi	-0.30103
-4.13384	arel	-0.30103
-3.58977	yaşında	-0.39794
-3.43487	öldü	-0.60206
-4.13384	eğlence	-0.30103
-4.13384	yerlerinin	-0.30103
-3.48063	saat	-0.330993
-4.13384	kapatılması	-0.30103
-3.95775	mao	-0.30103
-4.13384	zedong	-0.30103
-4.13384	önderliğinde	-0.30103
-3.95775	çin	-0.477121
-3.95775	halk	-0.30103
-4.13384	cumhuriyeti	-0.30103
-4.13384	kuruldu	-0.30103
-4.13384	cumhuriyetinin	-0.30103
-4.13384	seçildi	-0.30103
-4.13384	şair	-0.30103
-4.13384	faik	-0.30103
-4.13384	ozansoy	-0.30103
-4.13384	okulu	-0.30103
-4.13384	açıldı	-0.30103
-4.13384	eflatun	-0.30103
-4.13384	cem	-0.30103
-3.83281	güney	-0.30103
-3.95775	andersen	-0.30103
-4.13384	masal	-0.30103
-4.13384	ödülünü	-0.30103
-3.65672	kazandı	-0.778151
-4.13384	cezayir	-0.30103
-4.13384	bella	-0.30103
-3.95775	ülkede	-0.30103
-4.13384	fransızlara	-0.30103
-4.13384	toprakların	-0.30103
-4.13384	kamulaştırılması	-0.30103
-4.13384	emrini	-0.30103
-4.13384	boksör	-0.30103
-3.83281	cemal	-0.30103
-4.13384	kamacı	-0.30103
-4.13384	virgül	-0.30103
-4.13384	kiloda	-0.30103
-3.58977	avrupa	-0.30103
-3.7359	şampiyonu	-0.30103
-4.13384	güçlerinin	-0.30103
-4.13384	tunustaki	-0.30103
-3.95775	kurtuluş	-0.30103
-4.13384	fkö	-0.30103
-4.13384	bürolarına	-0.30103
-4.13384	saldırısında	-0.30103
-3.25878	kişi	-0.356547
-4.13384	bitlisin	-0.30103
-4.13384	cevizdalı	-0.30103
-4.13384	köyüne	-0.30103
-4.13384	saldıran	-0.30103
-3.95775	teröristler	-0.30103
-3.7359	kadınların	-0.367977
-3.53178	bulunduğu	-0.30103
-3.83281	kişiyi	-0.30103
-3.83281	öldürdü	-0.39794
-4.13384	yaraladı	-0.30103
-4.13384	korucuyu	-0.30103
-4.13384	kaçırdı	-0.30103
-4.13384	okullarına	-0.30103
-4.13384	alınmasına	-0.30103
-3.39348	ilişkin	-0.30103
-4.13384	yasa	-0.30103
-4.13384	tasarısı	-0.30103
-3.95775	tbmmde	-0.30103
-4.13384	afyonkarahisar	-0.30103
-4.13384	dinarda	-0.30103
-4.13384	büyüklüğündeki	-0.30103
-4.13384	depremde	-0.30103
-3.95775	örgütüne	-0.30103
-3.7359	başını	-0.30103
-4.13384	barındıran	-0.30103
-4.13384	suriyeye	-0.30103
-4.13384	kara	-0.30103
-4.13384	kuvvetleri	-0.30103
-4.13384	komutanı	-0.30103
-4.13384	atilla	-0.30103
-4.13384	ateş	-0.30103
-4.13384	mesut	-0.30103
-3.83281	yılmaz	-0.39794
-4.13384	uyarılarda	-0.30103
-4.13384	bulunducumhurbaşkanı	-0.30103
-4.13384	tbmmnin	-0.30103
-4.13384	yasama	-0.30103
-3.58977	yılı	-0.30103
-4.13384	açılışındaki	-0.30103
-4.13384	sabrımız	-0.30103
-4.13384	taşmak	-0.30103
-4.13384	üzeredir	-0.30103
-4.13384	hatayın	-0.30103
-3.83281	iskenderun	-0.30103
-4.13384	batan	-0.30103
-4.13384	mv	-0.30103
-4.13384	ulla	-0.30103
-4.13384	gemisinin	-0.30103
-4.13384	acentesine	-0.30103
-4.13384	denizi	-0.30103
-4.13384	kirlettiği	-0.30103
-3.58977	gerekçesiyle	-0.342423
-3.83281	hatay	-0.30103
-3.95775	il	-0.30103
-3.7359	çevre	-0.69897
-3.7359	orman	-0.30103
-4.13384	müdürlüğünce	-0.30103
-4.13384	lira	-0.30103
-3.95775	ceza	-0.30103
-3.83281	verildi	-0.39794
-3.83281	kocaeli	-0.39794
-4.13384	ford	-0.30103
-4.13384	otosan	-0.30103
-4.13384	rallisinde	-0.30103
-3.95775	yarış	-0.30103
-4.13384	araçlarından	-0.30103
-4.13384	birinin	-0.30103
-4.13384	çarpması	-0.30103
-3.95775	yaralanan	-0.30103
-4.13384	kanal	-0.30103
-4.13384	d	-0.30103
-4.13384	kameramanı	-0.30103
-4.13384	besim	-0.30103
-4.13384	dede	-0.30103
-3.95775	vefat	-0.477121
-3.95775	tarihte	-0.477121
-3.00351	arşivi	-1.43136
-3.43487	ocak	-0.447158
-3.7359	şubat	-0.367977
-3.83281	nisan	-0.39794
-3.7359	haziran	-0.477121
-3.53178	temmuz	-0.522879
-3.35569	ağustos	-0.574031
-3.95775	aralık	-0.477121
-3.95775	agos	-0.30103
-3.95775	gazetesi	-0.30103
-3.83281	yayın	-0.39794
-3.7359	yönetmeni	-0.367977
-3.83281	hrant	-0.39794
-3.7359	dink	-0.30103
-4.13384	suikastıyla	-0.30103
-3.95775	davanın	-0.30103
-4.13384	duruşması	-0.30103
-3.83281	katil	-0.60206
-3.83281	zanlısı	-0.39794
-3.95775	os	-0.477121
-4.13384	azmettirici	-0.30103
-3.20442	edilen	-0.348455
-3.95775	yasin	-0.30103
-3.7359	hayal	-0.30103
-3.7359	muhbiri	-0.69897
-3.7359	erhan	-0.477121
-3.83281	tuncelin	-0.30103
-3.7359	tutuklu	-0.30103
-4.13384	yargılanıyor	-0.30103
-4.13384	akıllarda	-0.30103
-3.95775	hala	-0.30103
-3.83281	soru	-0.30103
-4.13384	işaretleri	-0.30103
-3.95775	dinkin	-0.30103
-3.95775	ölümünün	-0.30103
-3.95775	üzerinden	-0.477121
-3.95775	geçti	-0.477121
-3.83281	avukatı	-0.30103
-3.83281	fethiye	-0.60206
-3.58977	çetin	-0.30103
-4.13384	cinayetteki	-0.30103
-4.13384	belirsizlikleri	-0.30103
-4.13384	savcılardan	-0.30103
-4.13384	delil	-0.30103
-4.13384	saklanmasına	-0.30103
-4.13384	bağlıyor	-0.30103
-4.13384	davada	-0.30103
-4.13384	işareti	-0.30103
-4.13384	hazırlık	-0.30103
-4.13384	soruşturmasını	-0.30103
-4.13384	yürütürken	-0.30103
-4.13384	deliller	-0.30103
-4.13384	yanıltılmış	-0.30103
-3.95775	hatta	-0.30103
-4.13384	değiştirilmiş	-0.30103
-3.65672	bunlar	-0.30103
-4.13384	çıkarılırsa	-0.30103
-3.7359	cinayetin	-0.30103
-4.13384	aydınlanması	-0.30103
-3.83281	yönünde	-0.30103
-3.7359	adım	-0.30103
-4.13384	atılır	-0.30103
-3.83281	avukat	-0.39794
-4.13384	aydınlatılması	-0.30103
-4.13384	soruları	-0.30103
-3.65672	şöyle	-0.352183
-4.13384	sıralıyor	-0.30103
-3.58977	trabzon	-0.39794
-3.83281	emniyeti	-0.30103
-3.95775	emniyetine	-0.30103
-4.13384	işleneceğini	-0.30103
-3.83281	neredeyse	-0.30103
-4.13384	bildirmesine	-0.30103
-3.53178	rağmen	-0.30103
-3.95775	önlem	-0.30103
-4.13384	alınmadı	-0.30103
-3.95775	telefonunu	-0.30103
-4.13384	dan	-0.30103
-4.13384	hayalin	-0.30103
-4.13384	ten	-0.30103
-4.13384	dinlemeye	-0.30103
-3.83281	fakat	-0.30103
-4.13384	savcılık	-0.30103
-4.13384	izniyle	-0.30103
-4.13384	yapmadı	-0.30103
-3.83281	kayıtları	-0.30103
-4.13384	istediklerin	-0.30103
-4.13384	kayıtlar	-0.30103
-3.95775	eksik	-0.30103
-4.13384	aranan	-0.30103
-4.13384	arayan	-0.30103
-4.13384	telefon	-0.30103
-4.13384	numaraları	-0.30103
-4.13384	kayıtlarda	-0.30103
-3.83281	yoktu	-0.60206
-4.13384	sesler	-0.30103
-3.95775	vardı	-0.477121
-4.13384	sanıklarından	-0.30103
-4.13384	alperen	-0.30103
-4.13384	ocakları	-0.30103
-3.43487	mustafa	-0.39794
-3.83281	öztürkü	-0.30103
-4.13384	dinledi	-0.30103
-4.13384	fiziki	-0.30103
-3.95775	takibe	-0.30103
-3.83281	dava	-0.30103
-4.13384	dosyasında	-0.30103
-3.83281	öztürkün	-0.30103
-3.7359	birlik	-0.30103
-4.13384	partisinden	-0.30103
-4.13384	kişiye	-0.30103
-3.83281	işi	-0.30103
-4.13384	onlara	-0.30103
-4.13384	verdik	-0.30103
-4.13384	yüzlerine	-0.30103
-4.13384	gözlerine	-0.30103
-4.13384	bulaştırdılar	-0.30103
-3.95775	dediği	-0.30103
-3.83281	ediliyor	-0.60206
-4.13384	takiplerde	-0.30103
-3.28874	ne	-0.361728
-3.48063	elde	-0.367977
-4.13384	edildiği	-0.30103
-4.13384	belli	-0.30103
-4.13384	zanlılar	-0.30103
-4.13384	savcılığa	-0.30103
-4.13384	verdikleri	-0.30103
-4.13384	ifadelerde	-0.30103
-3.95775	cinayeti	-0.30103
-4.13384	işlediklerini	-0.30103
-3.95775	anlattı	-0.477121
-3.83281	olayla	-0.39794
-4.13384	bağlantılar	-0.30103
-4.13384	ötesine	-0.30103
-4.13384	götürülemedi	-0.30103
-3.83281	cinayetten	-0.39794
-3.35569	müdürü	-0.322219
-3.83281	görevinden	-0.30103
-3.7359	alındı	-0.69897
-3.83281	istanbula	-0.30103
-4.13384	istihbaratı	-0.30103
-3.83281	şube	-0.30103
-4.13384	müdürünü	-0.30103
-4.13384	görevden	-0.30103
-4.13384	tuncel	-0.30103
-4.13384	emniyetinde	-0.30103
-4.13384	tutuldu	-0.30103
-4.13384	bununla	-0.30103
-3.53178	hiçbir	-0.30103
-4.13384	kayıt	-0.30103
-4.13384	işlendiği	-0.30103
-4.13384	yerdeki	-0.30103
-4.13384	kameranın	-0.30103
-3.65672	sabah	-0.30103
-3.95775	öğle	-0.30103
-4.13384	kayboldu	-0.30103
-4.13384	savcı	-0.30103
-3.39348	ama	-0.324511
-4.13384	cevabı	-0.30103
-3.95775	diyor	-0.477121
-4.13384	hırant	-0.30103
-4.13384	biliniyordu	-0.30103
-4.13384	önleyici	-0.30103
-4.13384	görevini	-0.30103
-4.13384	getirmedi	-0.30103
-4.13384	suikastı	-0.30103
-4.13384	gazetesinin	-0.30103
-3.7359	ermeni	-0.30103
-4.13384	asıllı	-0.30103
-3.95775	ocakta	-0.30103
-4.13384	şişlideki	-0.30103
-4.13384	halaskargazi	-0.30103
-3.95775	caddesinde	-0.30103
-3.95775	binasının	-0.30103
-4.13384	uğradığı	-0.30103
-4.13384	silahlı	-0.30103
-3.7359	hayatını	-0.367977
-3.95775	kaybetmişti	-0.477121
-3.7359	yaşındaki	-0.30103
-4.13384	samsun	-0.30103
-4.13384	otogarında	-0.30103
-4.13384	yakalanmıştı	-0.30103
-3.95775	konyaspor	-0.30103
-4.13384	nurullah	-0.30103
-4.13384	sağlamdan	-0.30103
-4.13384	boşalan	-0.30103
-3.83281	teknik	-0.30103
-4.13384	direktörlük	-0.30103
-3.83281	görevine	-0.30103
-3.83281	ünal	-0.30103
-4.13384	karamanı	-0.30103
-3.7359	getirdi	-0.69897
-3.83281	futbol	-0.39794
-4.13384	sorumlusu	-0.30103
-4.13384	hasan	-0.30103
-3.95775	dağlı	-0.477121
-3.58977	karaman	-0.30103
-4.13384	sözleşme	-0.30103
-4.13384	imzaladıklarını	-0.30103
-4.13384	karamanın	-0.30103
-3.95775	trabzonspor	-0.30103
-3.83281	deplasmanında	-0.30103
-4.13384	takımın	-0.30103
-3.7359	başında	-0.30103
-3.65672	olacağını	-0.352183
-4.13384	memleketinde	-0.30103
-4.13384	çalışmaktan	-0.30103
-4.13384	mutluluk	-0.30103
-4.13384	duyacağını	-0.30103
-3.65672	belirterek	-0.30103
-4.13384	konyasporu	-0.30103
-3.95775	gelecekte	-0.30103
-4.13384	güzel	-0.30103
-4.13384	günler	-0.30103
-3.95775	bekliyor	-0.477121
-4.13384	takımımızı	-0.30103
-4.13384	sıkıntılı	-0.30103
-3.95775	durumdan	-0.30103
-4.13384	çıkartacağız	-0.30103
-3.95775	taraf	-0.30103
-4.13384	hayırlı	-0.30103
-3.95775	olsun	-0.30103
-3.95775	dünyaca	-0.30103
-3.83281	chanel	-0.30103
-4.13384	parfümlerinin	-0.30103
-3.83281	sanat	-0.39794
-4.13384	jacques	-0.30103
-3.65672	helleu	-0.425969
-3.7359	cuma	-0.30103
-4.13384	hayata	-0.30103
-4.13384	veda	-0.30103
-3.83281	yıldır	-0.30103
-3.95775	chanelin	-0.30103
-3.95775	gözü	-0.30103
-3.83281	helleunün	-0.30103
-3.95775	ölümüne	-0.30103
-3.95775	marie	-0.30103
-4.13384	louise	-0.30103
-4.13384	clermont	-0.30103
-4.13384	tonnerre	-0.30103
-4.13384	hastalığını	-0.30103
-4.13384	gizlediği	-0.30103
-4.13384	yüzden	-0.30103
-3.7359	tam	-0.30103
-4.13384	şok	-0.30103
-4.13384	marka	-0.30103
-4.13384	saatlerin	-0.30103
-4.13384	chanele	-0.30103
-4.13384	girmiş	-0.30103
-4.13384	reklam	-0.30103
-4.13384	tanınan	-0.30103
-4.13384	kokusu	-0.30103
-3.95775	no5	-0.30103
-4.13384	fotoğrafçı	-0.30103
-3.95775	richard	-0.30103
-4.13384	avedon	-0.30103
-4.13384	anlaşmıştı	-0.30103
-3.95775	fransız	-0.30103
-4.13384	proustun	-0.30103
-4.13384	dostu	-0.30103
-4.13384	paul	-0.30103
-4.13384	torunu	-0.30103
-4.13384	poz	-0.30103
-4.13384	catherine	-0.30103
-4.13384	deneuveün	-0.30103
-3.95775	abdde	-0.30103
-3.83281	olmasına	-0.30103
-4.13384	chaneli	-0.30103
-4.13384	premiere	-0.30103
-4.13384	markasıyla	-0.30103
-3.95775	dünyasına	-0.30103
-4.13384	sokmuştu	-0.30103
-3.95775	the	-0.477121
-3.7359	new	-0.30103
-4.13384	yorker	-0.30103
-3.7359	yönetiminin	-0.30103
-3.83281	iranın	-0.39794
-4.13384	tesisleri	-0.30103
-3.48063	devrim	-0.367977
-4.13384	muhafızlarına	-0.30103
-3.95775	düzenleyebileceğini	-0.30103
-4.13384	yazdı	-0.30103
-4.13384	ebu	-0.30103
-4.13384	garib	-0.30103
-4.13384	skandalını	-0.30103
-3.95775	çıkaran	-0.30103
-4.13384	gazeteci	-0.30103
-4.13384	seymour	-0.30103
-3.7359	hersh	-0.30103
-4.13384	yorkerın	-0.30103
-4.13384	bugünkü	-0.30103
-3.95775	sayısında	-0.30103
-4.13384	adlarının	-0.30103
-4.13384	açıklanmasını	-0.30103
-3.95775	istemeyen	-0.30103
-4.13384	yetkililere	-0.30103
-4.13384	dayanarak	-0.30103
-4.13384	kaleme	-0.30103
-4.13384	haberinde	-0.30103
-3.65672	irana	-0.30103
-3.95775	olası	-0.30103
-4.13384	planlarında	-0.30103
-4.13384	değişiklik	-0.30103
-4.13384	yaptığını	-0.30103
-4.13384	ziyade	-0.30103
-3.83281	muhafızlarını	-0.30103
-4.13384	direnişçilere	-0.30103
-4.13384	etmekle	-0.30103
-4.13384	suçladığı	-0.30103
-4.13384	hatırlatılan	-0.30103
-3.95775	haberde	-0.30103
-4.13384	strateji	-0.30103
-4.13384	değişikliğinin	-0.30103
-4.13384	danışmanlarının	-0.30103
-3.09245	iran	-0.364082
-3.95775	stratejik	-0.30103
-4.13384	nitelemeye	-0.30103
-3.95775	başladığı	-0.30103
-4.13384	döneme	-0.30103
-4.13384	rastladığına	-0.30103
-4.13384	dikkati	-0.30103
-3.83281	çekti	-0.60206
-4.13384	ryan	-0.30103
-4.13384	crocker	-0.30103
-4.13384	yaz	-0.30103
-4.13384	video	-0.30103
-4.13384	konferans	-0.30103
-4.13384	görüşmesinde	-0.30103
-3.7359	bushun	-0.30103
-4.13384	sınırın	-0.30103
-4.13384	tarafındaki	-0.30103
-3.83281	hedeflerini	-0.39794
-4.13384	vurmayı	-0.30103
-4.13384	planladığını	-0.30103
-4.13384	ingilizlerin	-0.30103
-4.13384	kendisiyle	-0.30103
-3.83281	beraber	-0.30103
-4.13384	söylediği	-0.30103
-4.13384	bilgisini	-0.30103
-3.95775	hatırlattı	-0.477121
-3.83281	resmi	-0.30103
-4.13384	emri	-0.30103
-3.95775	olmamasına	-0.30103
-3.95775	karşın	-0.30103
-4.13384	hazırlıkların	-0.30103
-4.13384	ritminin	-0.30103
-4.13384	hızlandığını	-0.30103
-4.13384	haberalma	-0.30103
-4.13384	teşkilatının	-0.30103
-4.13384	cıa	-0.30103
-4.13384	birimini	-0.30103
-4.13384	takviye	-0.30103
-3.58977	ettiğini	-0.30103
-4.13384	israilli	-0.30103
-4.13384	yöneticilerin	-0.30103
-4.13384	tesislerini	-0.30103
-4.13384	vurmama	-0.30103
-3.95775	kararına	-0.30103
-4.13384	üzülmediğine	-0.30103
-4.13384	yetkililerin	-0.30103
-4.13384	hedeflere	-0.30103
-4.13384	endişelerini	-0.30103
-3.83281	dile	-0.30103
-4.13384	getirdiğine	-0.30103
-3.95775	başta	-0.30103
-4.13384	muhafızlarının	-0.30103
-4.13384	kamplarının	-0.30103
-4.13384	komuta	-0.30103
-3.83281	kontrol	-0.30103
-4.13384	tesislerinin	-0.30103
-4.13384	cephaneliklerin	-0.30103
-4.13384	kaldırılmasını	-0.30103
-4.13384	öngördüğü	-0.30103
-4.13384	muhafızları	-0.30103
-4.13384	daki	-0.30103
-4.13384	devriminden	-0.30103
-4.13384	yapılanmanın	-0.30103
-4.13384	bel	-0.30103
-4.13384	kemiğini	-0.30103
-4.13384	oluşturuyor	-0.30103
-3.7359	meclisi	-0.30103
-3.7359	ilan	-0.30103
-4.13384	etmesini	-0.30103
-3.83281	tasarısını	-0.30103
-3.58977	etmişti	-0.845098
-3.95775	ordusu	-0.477121
-4.13384	cıai	-0.30103
-4.13384	kararının	-0.30103
-4.13384	gerekçelerini	-0.30103
-4.13384	hiroşima	-0.30103
-4.13384	nagazakiye	-0.30103
-3.95775	atom	-0.30103
-4.13384	bombası	-0.30103
-3.95775	atması	-0.30103
-4.13384	balkanlar	-0.30103
-3.95775	afganistanda	-0.30103
-4.13384	seyreltilmiş	-0.30103
-4.13384	uranyum	-0.30103
-4.13384	içeren	-0.30103
-4.13384	bombalar	-0.30103
-4.13384	kullanması	-0.30103
-4.13384	vietnam	-0.30103
-4.13384	afganistanı	-0.30103
-3.83281	işgal	-0.30103
-3.65672	etmesi	-0.30103
-3.95775	saldırgan	-0.30103
-4.13384	siyonist	-0.30103
-4.13384	rejimi	-0.30103
-4.13384	desteklemesi	-0.30103
-4.13384	cıain	-0.30103
-4.13384	girişimlerinden	-0.30103
-4.13384	bazıları	-0.30103
-4.13384	sıralamıştı	-0.30103
-3.53178	ihracat	-0.335792
-3.83281	ayına	-0.30103
-2.92972	milyon	-0.581857
-3.7359	ithalat	-0.367977
-3.83281	gerçekleşti	-0.60206
-3.83281	istatistik	-0.30103
-4.13384	kurumunun	-0.30103
-3.83281	tüik	-0.30103
-4.13384	açıkladığı	-0.30103
-3.53178	ticaret	-0.522879
-3.7359	açığı	-0.30103
-4.13384	dolardan	-0.30103
-3.83281	dolara	-0.39794
-3.7359	ihracatın	-0.69897
-3.65672	ithalatı	-0.544068
-3.7359	karşılama	-0.69897
-3.43487	oranı	-0.447158
-3.7359	dolarlık	-0.477121
-3.95775	yapılmıştı	-0.477121
-3.7359	konusu	-0.30103
-3.95775	ayda	-0.30103
-4.13384	dönemindeki	-0.30103
-4.13384	ihracatı	-0.30103
-3.7359	dönemine	-0.69897
-3.35569	e	-0.346787
-4.13384	gerçekleşmişti	-0.30103
-4.13384	abnin	-0.30103
-4.13384	ticaretteki	-0.30103
-3.95775	ağırlığı	-0.30103
-3.83281	sürüyor	-0.39794
-4.13384	birliğinin	-0.30103
-4.13384	ihracattaki	-0.30103
-3.39348	devam	-0.352183
-4.13384	ülkelerine	-0.30103
-4.13384	seviyesinde	-0.30103
-3.83281	ülkelerinin	-0.30103
-3.48063	serbest	-0.30103
-4.13384	bölgelerinin	-0.30103
-3.7359	ülkelerin	-0.30103
-3.39348	ülke	-0.352183
-4.13384	dolarla	-0.30103
-3.7359	almanya	-0.30103
-4.13384	ithalatın	-0.30103
-3.83281	ü	-0.30103
-3.83281	ülkelerinden	-0.39794
-3.7359	yapıldı	-0.69897
-3.65672	dahil	-0.30103
-3.95775	olmayan	-0.30103
-3.95775	asya	-0.30103
-4.13384	dolarve	-0.30103
-4.13384	bölgelerinden	-0.30103
-4.13384	basketbolunun	-0.30103
-4.13384	efsane	-0.30103
-3.95775	isimlerinden	-0.30103
-3.95775	vlade	-0.477121
-3.58977	divac	-0.30103
-3.95775	organizasyonla	-0.30103
-4.13384	oyunculuk	-0.30103
-3.95775	kariyerine	-0.30103
-3.83281	koydu	-0.60206
-4.13384	jübilesinden	-0.30103
-3.95775	geliri	-0.477121
-3.95775	oluşturduğu	-0.477121
-3.95775	fonuna	-0.30103
-4.13384	aktardı	-0.30103
-3.95775	sırp	-0.30103
-4.13384	yıldız	-0.30103
-3.95775	basketbol	-0.30103
-4.13384	nba	-0.30103
-4.13384	kariyerini	-0.30103
-4.13384	noktalamıştı	-0.30103
-3.95775	los	-0.477121
-3.95775	angeles	-0.30103
-4.13384	lakersta	-0.30103
-3.83281	forma	-0.30103
-4.13384	giyen	-0.30103
-4.13384	jübilesini	-0.30103
-4.13384	sırbistanda	-0.30103
-3.95775	gerçekleştirilen	-0.30103
-4.13384	organizasyon	-0.30103
-3.7359	partisi	-0.30103
-4.13384	konser	-0.30103
-4.13384	sokak	-0.30103
-4.13384	basketbolu	-0.30103
-4.13384	euroluk	-0.30103
-4.13384	gelir	-0.30103
-3.95775	divacın	-0.30103
-4.13384	aktarıldı	-0.30103
-4.13384	organizasyonda	-0.30103
-4.13384	cris	-0.30103
-4.13384	webber	-0.30103
-4.13384	scot	-0.30103
-4.13384	pollard	-0.30103
-4.13384	toni	-0.30103
-4.13384	kukoc	-0.30103
-4.13384	denis	-0.30103
-4.13384	cooper	-0.30103
-4.13384	gregg	-0.30103
-4.13384	popovic	-0.30103
-3.95775	sasa	-0.30103
-4.13384	danilovic	-0.30103
-4.13384	zarko	-0.30103
-4.13384	paspalj	-0.30103
-4.13384	peja	-0.30103
-4.13384	stojakovic	-0.30103
-4.13384	djordjevic	-0.30103
-4.13384	sarunas	-0.30103
-4.13384	marciulionis	-0.30103
-4.13384	isimler	-0.30103
-4.13384	vilade	-0.30103
-4.13384	kariyerim	-0.30103
-3.95775	sıradan	-0.477121
-4.13384	adamın	-0.30103
-4.13384	kasabadan	-0.30103
-4.13384	çıkarak	-0.30103
-4.13384	rüyalarını	-0.30103
-4.13384	gerçekleştirmesi	-0.30103
-4.13384	örnektir	-0.30103
-4.13384	herkese	-0.30103
-4.13384	teşekkür	-0.30103
-3.83281	ediyorum	-0.39794
-4.13384	jübilemden	-0.30103
-4.13384	kullanacak	-0.30103
-4.13384	olmaktan	-0.30103
-3.95775	mutluyum	-0.477121
-4.13384	doğduğu	-0.30103
-4.13384	priepolijede	-0.30103
-3.95775	kazandığı	-0.30103
-4.13384	madalyalar	-0.30103
-4.13384	kupalar	-0.30103
-4.13384	hayatından	-0.30103
-4.13384	kesitlerin	-0.30103
-4.13384	müze	-0.30103
-4.13384	yugoslavyanın	-0.30103
-4.13384	partizan	-0.30103
-4.13384	takımında	-0.30103
-4.13384	nbade	-0.30103
-4.13384	charlotte	-0.30103
-4.13384	sacramento	-0.30103
-4.13384	lakers	-0.30103
-4.13384	formaları	-0.30103
-4.13384	giydi	-0.30103
-4.13384	all	-0.30103
-4.13384	stars	-0.30103
-4.13384	takımı	-0.30103
-4.13384	kadrosunda	-0.30103
-4.13384	pivot	-0.30103
-3.43487	takım	-0.511883
-4.13384	kariyerinde	-0.30103
-4.13384	şampiyonluğu	-0.30103
-4.13384	yaşadı	-0.30103
-3.95775	fatihteki	-0.477121
-3.83281	ismailağa	-0.39794
-3.95775	camiinde	-0.30103
-4.13384	emekli	-0.30103
-3.95775	imam	-0.30103
-3.65672	erdalın	-0.30103
-4.13384	öldürülmesine	-0.30103
-4.13384	yargılanan	-0.30103
-4.13384	sanıktan	-0.30103
-3.53178	irfan	-0.439333
-4.13384	cana	-0.30103
-3.95775	müebbet	-0.477121
-3.7359	hapis	-0.477121
-3.95775	cezası	-0.30103
-4.13384	indirim	-0.30103
-4.13384	uygulanarak	-0.30103
-3.7359	cezasına	-0.30103
-4.13384	düşürüldü	-0.30103
-3.58977	mahkeme	-0.477121
-3.53178	heyeti	-0.30103
-4.13384	sanıklardan	-0.30103
-3.95775	akhanın	-0.30103
-3.83281	beraatını	-0.39794
-3.95775	kararlaştırdı	-0.477121
-4.13384	üncü	-0.30103
-3.95775	mahkemesindeki	-0.30103
-3.95775	duruşmaya	-0.30103
-3.7359	sanık	-0.477121
-4.13384	tutuksuz	-0.30103
-4.13384	akhan	-0.30103
-4.13384	gelmedi	-0.30103
-4.13384	duruşmada	-0.30103
-3.65672	canın	-0.30103
-4.13384	hakan	-0.30103
-3.7359	tunçkol	-0.30103
-4.13384	öldüren	-0.30103
-4.13384	birileri	-0.30103
-4.13384	tetikçi	-0.30103
-4.13384	tutulduğunu	-0.30103
-4.13384	tetikçinin	-0.30103
-3.95775	sağ	-0.477121
-4.13384	geçirilmesini	-0.30103
-4.13384	cemaatten	-0.30103
-4.13384	bazılarının	-0.30103
-4.13384	b	-0.30103
-3.83281	planını	-0.30103
-4.13384	devreye	-0.30103
-4.13384	koyarak	-0.30103
-3.95775	cemaati	-0.30103
-4.13384	provoke	-0.30103
-3.83281	öne	-0.39794
-3.7359	elinden	-0.367977
-3.65672	bıçağı	-0.30103
-4.13384	fırsatı	-0.30103
-4.13384	varken	-0.30103
-3.95775	erdalı	-0.30103
-4.13384	bıçaklamadığını	-0.30103
-4.13384	başkalarının	-0.30103
-4.13384	kullanmasını	-0.30103
-3.95775	engellemek	-0.30103
-4.13384	mihraba	-0.30103
-4.13384	bıraktığını	-0.30103
-3.95775	müvekkilinin	-0.30103
-4.13384	ilgisinin	-0.30103
-3.95775	maktulün	-0.477121
-4.13384	provokasyonla	-0.30103
-3.95775	cami	-0.30103
-3.83281	dışında	-0.30103
-4.13384	bağıran	-0.30103
-4.13384	grubun	-0.30103
-4.13384	vuran	-0.30103
-3.83281	adam	-0.39794
-4.13384	sünnetsizmiş	-0.30103
-3.83281	şeklinde	-0.39794
-4.13384	ifadelerle	-0.30103
-4.13384	kanıtladığını	-0.30103
-4.13384	kaydeden	-0.30103
-3.65672	sorumlu	-0.30103
-4.13384	tutulmasını	-0.30103
-4.13384	gerektirecek	-0.30103
-4.13384	ifadesinin	-0.30103
-3.95775	bulunmadığını	-0.30103
-3.7359	alınan	-0.30103
-4.13384	ifadelerin	-0.30103
-4.13384	avukatları	-0.30103
-4.13384	çağrılmadan	-0.30103
-3.83281	alındığı	-0.30103
-4.13384	cinayete	-0.30103
-4.13384	hüküm	-0.30103
-4.13384	verilemeyeceğini	-0.30103
-4.13384	aşkın	-0.30103
-4.13384	zamandır	-0.30103
-4.13384	cezaevinde	-0.30103
-3.83281	suç	-0.30103
-4.13384	insanlarla	-0.30103
-3.95775	suçsuz	-0.30103
-3.95775	yere	-0.30103
-4.13384	yattığını	-0.30103
-3.95775	nedenle	-0.30103
-4.13384	psikolojisinin	-0.30103
-4.13384	bozulduğunu	-0.30103
-4.13384	içinden	-0.30103
-4.13384	mahkemeye	-0.30103
-3.95775	heyetine	-0.30103
-4.13384	bağırmak	-0.30103
-3.83281	geçtiği	-0.30103
-4.13384	halde	-0.30103
-4.13384	heyete	-0.30103
-3.83281	yanlış	-0.30103
-4.13384	söylememek	-0.30103
-4.13384	duruşmalarda	-0.30103
-3.7359	kendini	-0.30103
-4.13384	tuttuğunu	-0.30103
-4.13384	suçlanması	-0.30103
-4.13384	savunan	-0.30103
-4.13384	savcıyı	-0.30103
-4.13384	soruşturmayı	-0.30103
-4.13384	yürütmekle	-0.30103
-4.13384	suçladı	-0.30103
-3.95775	vermeye	-0.30103
-4.13384	tanık	-0.30103
-4.13384	çağrıldım	-0.30103
-4.13384	söylüyorum	-0.30103
-4.13384	insanın	-0.30103
-4.13384	kurtarmak	-0.30103
-4.13384	çabalayan	-0.30103
-4.13384	şahsıma	-0.30103
-4.13384	cinayet	-0.30103
-3.95775	suçu	-0.30103
-4.13384	isnat	-0.30103
-4.13384	öldürülen	-0.30103
-4.13384	tanımadığını	-0.30103
-4.13384	hocayı	-0.30103
-4.13384	öğütlerinden	-0.30103
-3.65672	dolayı	-0.30103
-4.13384	bildiğini	-0.30103
-3.7359	anlatan	-0.367977
-4.13384	cemaatinden	-0.30103
-3.83281	ön	-0.30103
-4.13384	saftakilerin	-0.30103
-3.7359	müdahale	-0.30103
-4.13384	etmesine	-0.30103
-4.13384	suçun	-0.30103
-4.13384	atılmasına	-0.30103
-4.13384	üzüldüğünü	-0.30103
-3.95775	şeyin	-0.30103
-4.13384	davayı	-0.30103
-3.83281	karara	-0.30103
-3.95775	bağlayan	-0.30103
-3.83281	kasten	-0.39794
-3.95775	öldürmek	-0.30103
-4.13384	suçuna	-0.30103
-4.13384	iştirakle	-0.30103
-4.13384	suçlanan	-0.30103
-4.13384	yüklenen	-0.30103
-4.13384	işlediğinin	-0.30103
-3.95775	sabit	-0.477121
-3.83281	olmaması	-0.39794
-4.13384	sohbetlere	-0.30103
-4.13384	camide	-0.30103
-4.13384	cemaat	-0.30103
-4.13384	sevilen	-0.30103
-3.7359	erdal	-0.367977
-4.13384	bıçakla	-0.30103
-4.13384	saftan	-0.30103
-4.13384	kalkarak	-0.30103
-4.13384	maktulü	-0.30103
-4.13384	itmek	-0.30103
-4.13384	suretiyle	-0.30103
-4.13384	mihrabın	-0.30103
-4.13384	mermerine	-0.30103
-4.13384	vurduğunu	-0.30103
-4.13384	maktulden	-0.30103
-4.13384	cemaatin	-0.30103
-4.13384	görebileceği	-0.30103
-4.13384	havaya	-0.30103
-4.13384	kaldırarak	-0.30103
-4.13384	işlemeye	-0.30103
-4.13384	teşvik	-0.30103
-3.65672	belirtilen	-0.30103
-4.13384	kararda	-0.30103
-4.13384	sonuçta	-0.30103
-4.13384	cemaatte	-0.30103
-4.13384	kimliği	-0.30103
-4.13384	edilemeyen	-0.30103
-4.13384	kişiler	-0.30103
-4.13384	tekme	-0.30103
-4.13384	tokatlarla	-0.30103
-4.13384	otopside	-0.30103
-4.13384	beden	-0.30103
-4.13384	travması	-0.30103
-4.13384	beyin	-0.30103
-4.13384	harabiyetine	-0.30103
-4.13384	kanama	-0.30103
-4.13384	öldürüldüğü	-0.30103
-3.95775	kaydedildi	-0.477121
-4.13384	canı	-0.30103
-4.13384	suçundan	-0.30103
-4.13384	çarptıran	-0.30103
-4.13384	cezayı	-0.30103
-4.13384	öldürmeye	-0.30103
-3.95775	hapse	-0.30103
-3.83281	haksız	-0.30103
-4.13384	fiilin	-0.30103
-4.13384	hiddet	-0.30103
-4.13384	şiddetli	-0.30103
-4.13384	elemin	-0.30103
-4.13384	etkisi	-0.30103
-4.13384	işlediği	-0.30103
-4.13384	duruşmalardaki	-0.30103
-4.13384	hali	-0.30103
-4.13384	indirdi	-0.30103
-3.95775	heyet	-0.30103
-4.13384	üyesinin	-0.30103
-4.13384	muhalefeti	-0.30103
-4.13384	heyetinin	-0.30103
-3.95775	oy	-0.30103
-4.13384	çokluğu	-0.30103
-4.13384	muhalif	-0.30103
-3.95775	üye	-0.30103
-4.13384	hakim	-0.30103
-4.13384	seyithan	-0.30103
-3.95775	güneş	-0.30103
-3.95775	muhalefet	-0.30103
-4.13384	şerhinde	-0.30103
-4.13384	sanığın	-0.30103
-4.13384	eyleminin	-0.30103
-3.83281	beraat	-0.30103
-4.13384	tahliyesi	-0.30103
-3.7359	gerektiği	-0.30103
-4.13384	görüşündeyim	-0.30103
-4.13384	kararın	-0.30103
-3.95775	açıklanmasından	-0.30103
-4.13384	duruşma	-0.30103
-4.13384	salonundan	-0.30103
-4.13384	çıkartılırken	-0.30103
-4.13384	dönerek	-0.30103
-4.13384	sizi	-0.30103
-4.13384	allaha	-0.30103
-4.13384	havale	-0.30103
-4.13384	yapacağım	-0.30103
-4.13384	ibadetlerde	-0.30103
-4.13384	yaşadığım	-0.30103
-4.13384	günlerin	-0.30103
-4.13384	aynısını	-0.30103
-3.83281	siz	-0.30103
-4.13384	yaşayasınız	-0.30103
-4.13384	dua	-0.30103
-4.13384	edeceğim	-0.30103
-4.13384	camiinin	-0.30103
-4.13384	imamı	-0.30103
-4.13384	öztürk	-0.30103
-4.13384	namazından	-0.30103
-3.95775	sonraki	-0.30103
-4.13384	bıçaklanmış	-0.30103
-4.13384	yerinde	-0.30103
-4.13384	bıçaklayan	-0.30103
-4.13384	kaçmaya	-0.30103
-4.13384	çalışırken	-0.30103
-4.13384	camidekiler	-0.30103
-4.13384	öldürülmüştü	-0.30103
-3.95775	bilim	-0.477121
-3.95775	adamları	-0.30103
-4.13384	sigaranın	-0.30103
-4.13384	kanser	-0.30103
-4.13384	yönündeki	-0.30103
-4.13384	bulguları	-0.30103
-4.13384	selahaddin	-0.30103
-4.13384	eyyubi	-0.30103
-4.13384	kudüsü	-0.30103
-4.13384	zapt	-0.30103
-3.95775	frank	-0.30103
-4.13384	işgaline	-0.30103
-3.95775	modern	-0.30103
-4.13384	teleskopun	-0.30103
-4.13384	prototipi	-0.30103
-3.95775	jan	-0.30103
-4.13384	lippershey	-0.30103
-4.13384	ahmetin	-0.30103
-4.13384	halledilmesiyle	-0.30103
-3.95775	ı	-0.30103
-4.13384	mahmut	-0.30103
-4.13384	tahta	-0.30103
-4.13384	divan	-0.30103
-4.13384	şairi	-0.30103
-4.13384	nedim	-0.30103
-4.13384	darwin	-0.30103
-4.13384	brezilya	-0.30103
-4.13384	galapagos	-0.30103
-4.13384	adaları	-0.30103
-4.13384	zelandayı	-0.30103
-4.13384	kapsayan	-0.30103
-4.13384	gezisinden	-0.30103
-4.13384	ingiltereye	-0.30103
-4.13384	döndü	-0.30103
-4.13384	yayınlayacağı	-0.30103
-4.13384	türlerin	-0.30103
-4.13384	kökeni	-0.30103
-4.13384	çalışmasının	-0.30103
-4.13384	kaynağını	-0.30103
-4.13384	oluşturdu	-0.30103
-3.95775	kenti	-0.30103
-4.13384	tamamen	-0.30103
-4.13384	itilaf	-0.30103
-4.13384	devletlerinin	-0.30103
-4.13384	birlikleri	-0.30103
-4.13384	dolmabahçe	-0.30103
-4.13384	rıhtımından	-0.30103
-4.13384	gemilere	-0.30103
-4.13384	binerek	-0.30103
-4.13384	terk	-0.30103
-3.95775	ettiler	-0.477121
-4.13384	kemalin	-0.30103
-4.13384	geldikleri	-0.30103
-4.13384	giderler	-0.30103
-3.95775	güçlerine	-0.30103
-4.13384	istanbuldan	-0.30103
-3.95775	ayrıldı	-0.477121
-3.58977	batı	-0.30103
-4.13384	natoya	-0.30103
-3.95775	orta	-0.30103
-3.83281	doğu	-0.30103
-3.95775	üniversitesinin	-0.30103
-4.13384	temeli	-0.30103
-3.83281	atıldı	-0.60206
-4.13384	sivas	-0.30103
-4.13384	kongresi	-0.30103
-4.13384	temsiliye	-0.30103
-4.13384	üyelerine	-0.30103
-3.7359	birinci	-0.30103
-4.13384	üyeliklerine	-0.30103
-4.13384	kanun	-0.30103
-4.13384	komutanlarından	-0.30103
-4.13384	refet	-0.30103
-4.13384	bele	-0.30103
-4.13384	antlaşma	-0.30103
-4.13384	cento	-0.30103
-3.95775	binasına	-0.30103
-4.13384	operet	-0.30103
-4.13384	sanatçısı	-0.30103
-4.13384	besteci	-0.30103
-4.13384	sahir	-0.30103
-4.13384	kehlibağcıoğlu	-0.30103
-3.83281	komitesi	-0.30103
-4.13384	general	-0.30103
-4.13384	madanoğlu	-0.30103
-4.13384	arkadaşları	-0.30103
-4.13384	sıkıyönetim	-0.30103
-4.13384	cunta	-0.30103
-4.13384	davasında	-0.30103
-4.13384	konulan	-0.30103
-4.13384	silaha	-0.30103
-4.13384	ambargosunu	-0.30103
-4.13384	kaldırdı	-0.30103
-4.13384	sıklet	-0.30103
-4.13384	boks	-0.30103
-3.95775	muhammed	-0.477121
-4.13384	clay	-0.30103
-3.83281	sonrası	-0.30103
-4.13384	grev	-0.30103
-4.13384	tuzlada	-0.30103
-4.13384	tersanede	-0.30103
-3.7359	başladı	-0.69897
-4.13384	aktör	-0.30103
-4.13384	rock	-0.30103
-4.13384	hudson	-0.30103
-4.13384	aıdse	-0.30103
-4.13384	yenik	-0.30103
-4.13384	düşerek	-0.30103
-4.13384	beverly	-0.30103
-4.13384	hillsdeki	-0.30103
-3.95775	evinde	-0.30103
-3.95775	tv	-0.30103
-4.13384	gap	-0.30103
-4.13384	yayına	-0.30103
-4.13384	ege	-0.30103
-4.13384	denizindeki	-0.30103
-4.13384	tatbikatlar	-0.30103
-3.95775	abdye	-0.30103
-4.13384	uçak	-0.30103
-4.13384	gemisi	-0.30103
-4.13384	saratogadan	-0.30103
-4.13384	atılan	-0.30103
-4.13384	füze	-0.30103
-4.13384	muavenet	-0.30103
-4.13384	muhribine	-0.30103
-4.13384	isabet	-0.30103
-4.13384	gemi	-0.30103
-4.13384	komutanıyla	-0.30103
-4.13384	denizci	-0.30103
-4.13384	münip	-0.30103
-4.13384	özben	-0.30103
-3.83281	ak	-0.39794
-3.95775	parti	-0.30103
-3.95775	grup	-0.30103
-3.95775	vekili	-0.30103
-4.13384	sadullah	-0.30103
-3.48063	ergin	-0.367977
-3.7359	anayasanın	-0.30103
-3.95775	uzlaşı	-0.30103
-4.13384	içerisinde	-0.30103
-3.95775	tamamlanmasına	-0.477121
-3.95775	çalıştıklarını	-0.30103
-3.65672	tüsiadın	-0.30103
-4.13384	eleştirilerinin	-0.30103
-3.83281	savundu	-0.60206
-4.13384	taslağı	-0.30103
-4.13384	eleştirilerde	-0.30103
-3.65672	bulunduğunu	-0.30103
-4.13384	eleştirilmesi	-0.30103
-3.95775	konunun	-0.30103
-4.13384	hazırlattığı	-0.30103
-4.13384	taslak	-0.30103
-3.95775	metni	-0.30103
-4.13384	kendilerinin	-0.30103
-4.13384	çalışmanın	-0.30103
-3.95775	akademik	-0.30103
-4.13384	heyetin	-0.30103
-4.13384	çalışması	-0.30103
-3.39348	belirten	-0.352183
-4.13384	değişmesi	-0.30103
-4.13384	acımasız	-0.30103
-4.13384	eleştirileri	-0.30103
-4.13384	yapanlarda	-0.30103
-3.95775	ittifak	-0.30103
-3.43487	bizim	-0.327359
-4.13384	yöntemimizi	-0.30103
-4.13384	beğenen	-0.30103
-4.13384	beğenmeyen	-0.30103
-4.13384	tartışmanın	-0.30103
-4.13384	parçası	-0.30103
-3.83281	zaten	-0.30103
-4.13384	olağan	-0.30103
-3.95775	etmek	-0.30103
-3.83281	lazım	-0.39794
-3.95775	çalışmalarının	-0.30103
-4.13384	önümüzdeki	-0.30103
-4.13384	süreçte	-0.30103
-4.13384	tartışmalara	-0.30103
-4.13384	kuruluşları	-0.30103
-4.13384	camiası	-0.30103
-3.83281	üniversiteler	-0.30103
-4.13384	tekliflerini	-0.30103
-4.13384	getirecekler	-0.30103
-4.13384	muhtemelen	-0.30103
-3.95775	sonuna	-0.30103
-4.13384	tartışılacak	-0.30103
-4.13384	somutlaşmasını	-0.30103
-4.13384	bekliyoruz	-0.30103
-4.13384	ortalarına	-0.30103
-4.13384	edeceğini	-0.30103
-4.13384	umarım	-0.30103
-3.95775	anayasaya	-0.30103
-4.13384	kavuştuğu	-0.30103
-4.13384	tüsiada	-0.30103
-3.95775	yanıt	-0.30103
-4.13384	niyetle	-0.30103
-4.13384	eleştirilerin	-0.30103
-4.13384	başlarının	-0.30103
-4.13384	yeri	-0.30103
-3.95775	şunu	-0.30103
-4.13384	belirtmek	-0.30103
-4.13384	durumundayım	-0.30103
-3.83281	tüsiad	-0.30103
-4.13384	eleştiriyor	-0.30103
-3.95775	laikliğe	-0.30103
-4.13384	dokunmayın	-0.30103
-3.83281	atatürk	-0.30103
-4.13384	ilke	-0.30103
-4.13384	inkılaplarına	-0.30103
-4.13384	karışmayın	-0.30103
-4.13384	hazırladığımız	-0.30103
-4.13384	metninde	-0.30103
-4.13384	değiştirilemez	-0.30103
-4.13384	maddeler	-0.30103
-4.13384	korunuyor	-0.30103
-3.95775	güçlü	-0.30103
-4.13384	vurgular	-0.30103
-4.13384	yapılmış	-0.30103
-3.65672	konuda	-0.30103
-4.13384	endişemiz	-0.30103
-4.13384	bunlarla	-0.30103
-4.13384	sorunumu	-0.30103
-4.13384	teziç	-0.30103
-3.95775	başkanlığındaki	-0.30103
-4.13384	anayasacısı	-0.30103
-3.95775	profesör	-0.30103
-4.13384	yaptırdığı	-0.30103
-4.13384	metinde	-0.30103
-4.13384	başlangıç	-0.30103
-4.13384	kısmındaki	-0.30103
-4.13384	ilkelerine	-0.30103
-4.13384	vurgunun	-0.30103
-4.13384	milletvekili	-0.30103
-4.13384	yemininde	-0.30103
-4.13384	adının	-0.30103
-4.13384	çıkartılması	-0.30103
-4.13384	belirtilirken	-0.30103
-4.13384	tüsiadb	-0.30103
-3.95775	u	-0.30103
-4.13384	çalışmayı	-0.30103
-4.13384	yaptırmışken	-0.30103
-4.13384	çalışmamızda	-0.30103
-4.13384	eleştirmelerine	-0.30103
-4.13384	üzülüyoruz	-0.30103
-3.7359	biz	-0.477121
-4.13384	etmedik	-0.30103
-3.83281	ifadesini	-0.60206
-3.7359	kullandı	-0.69897
-4.13384	referandum	-0.30103
-4.13384	gülün	-0.30103
-3.95775	şeklindeki	-0.30103
-3.95775	şimdiki	-0.30103
-4.13384	göreve	-0.30103
-3.95775	edecek	-0.30103
-4.13384	referandumu	-0.30103
-4.13384	parlamentoya	-0.30103
-4.13384	sunulduğunda	-0.30103
-3.83281	henüz	-0.30103
-4.13384	seçilmemişti	-0.30103
-4.13384	maddede	-0.30103
-3.95775	seçilme	-0.30103
-4.13384	yöntemi	-0.30103
-4.13384	belirtilmişti	-0.30103
-4.13384	referandumunda	-0.30103
-3.95775	değişikliği	-0.30103
-3.7359	teklifi	-0.30103
-4.13384	onaylanır	-0.30103
-3.95775	yürürlüğe	-0.30103
-4.13384	girerse	-0.30103
-3.95775	ölü	-0.30103
-4.13384	doğmuş	-0.30103
-4.13384	olacaktır	-0.30103
-4.13384	yöntemini	-0.30103
-4.13384	belirtmiştir	-0.30103
-4.13384	oysa	-0.30103
-3.35569	şu	-0.574031
-3.95775	anda	-0.30103
-4.13384	yürürlükteki	-0.30103
-4.13384	anayasamızın	-0.30103
-3.58977	nci	-0.342423
-3.95775	maddesi	-0.30103
-4.13384	doğrultusundaseçilmiş	-0.30103
-4.13384	başlamış	-0.30103
-4.13384	tasarruflar	-0.30103
-4.13384	kararnameler	-0.30103
-4.13384	imzalıyor	-0.30103
-4.13384	ziyaretler	-0.30103
-4.13384	atamalar	-0.30103
-4.13384	bundan	-0.30103
-3.95775	olsa	-0.30103
-3.83281	olur	-0.30103
-4.13384	eleştirisi	-0.30103
-4.13384	sanayicileri	-0.30103
-4.13384	işadamları	-0.30103
-4.13384	arzuhan	-0.30103
-4.13384	doğan	-0.30103
-3.95775	yalçındağ	-0.30103
-4.13384	istişare	-0.30103
-4.13384	yik	-0.30103
-3.95775	koç	-0.30103
-4.13384	hükümete	-0.30103
-4.13384	yüklenmiş	-0.30103
-3.83281	endişeleri	-0.30103
-4.13384	giderme	-0.30103
-4.13384	çağrısı	-0.30103
-3.7359	laiklik	-0.30103
-4.13384	bulunmuştu	-0.30103
-4.13384	konusunun	-0.30103
-3.65672	plana	-0.30103
-4.13384	tehlikeli	-0.30103
-4.13384	başındakilerin	-0.30103
-4.13384	geçmiş	-0.30103
-4.13384	dönemdeki	-0.30103
-4.13384	eylem	-0.30103
-4.13384	söylemlerinden	-0.30103
-4.13384	kaynaklanıyor	-0.30103
-4.13384	giderilmezse	-0.30103
-4.13384	tartışmalar	-0.30103
-4.13384	kaçınılmaz	-0.30103
-4.13384	noktaya	-0.30103
-4.13384	odaklanacaktır	-0.30103
-3.83281	iktidar	-0.30103
-4.13384	çıkmamasını	-0.30103
-4.13384	uzlaşmayı	-0.30103
-4.13384	fevkalade	-0.30103
-4.13384	önemsiyoruz	-0.30103
-4.13384	tanımlarının	-0.30103
-4.13384	peşinde	-0.30103
-4.13384	koşulmamalı	-0.30103
-3.7359	oecd	-0.367977
-4.13384	raporuna	-0.30103
-4.13384	öğretimin	-0.30103
-4.13384	durumunu	-0.30103
-3.7359	nüfusun	-0.367977
-3.65672	si	-0.30103
-3.83281	öğretim	-0.30103
-4.13384	olanaklarından	-0.30103
-4.13384	yararlanırken	-0.30103
-4.13384	rakam	-0.30103
-3.95775	ülkelerinde	-0.30103
-4.13384	öğrenim	-0.30103
-4.13384	mezunlarının	-0.30103
-3.95775	oranına	-0.30103
-4.13384	bakıldığında	-0.30103
-4.13384	yine	-0.30103
-3.95775	ülkeleri	-0.477121
-3.83281	alt	-0.30103
-4.13384	sıralarda	-0.30103
-4.13384	polonyada	-0.30103
-3.65672	i	-0.352183
-4.13384	portekizde	-0.30103
-4.13384	yunanistanda	-0.30103
-4.13384	üniversite	-0.30103
-4.13384	mezunu	-0.30103
-4.13384	öğrenimi	-0.30103
-4.13384	bitiriyor	-0.30103
-4.13384	mezunların	-0.30103
-4.13384	işsiz	-0.30103
-4.13384	bulamayanların	-0.30103
-4.13384	ortalaması	-0.30103
-4.13384	öğrenime	-0.30103
-4.13384	bütçeden	-0.30103
-4.13384	ayrılan	-0.30103
-4.13384	payda	-0.30103
-3.65672	sırada	-0.352183
-3.95775	hazırladığı	-0.30103
-4.13384	özlük	-0.30103
-4.13384	haklarına	-0.30103
-3.65672	malezyada	-0.30103
-4.13384	singapurda	-0.30103
-4.13384	kazanıyor	-0.30103
-3.7359	doğalgaz	-0.367977
-4.13384	dağıtımı	-0.30103
-3.95775	özelleştirmesinde	-0.30103
-4.13384	düğmeye	-0.30103
-4.13384	basıldı	-0.30103
-3.65672	ihale	-0.30103
-4.13384	sürecini	-0.30103
-3.83281	enerji	-0.30103
-4.13384	piyasası	-0.30103
-4.13384	düzenleme	-0.30103
-4.13384	kurulundan	-0.30103
-3.95775	epdk	-0.30103
-3.7359	dağıtım	-0.30103
-4.13384	lisansını	-0.30103
-3.83281	şehir	-0.30103
-4.13384	belediyesi	-0.30103
-4.13384	yürütecek	-0.30103
-4.13384	belediye	-0.30103
-4.13384	melih	-0.30103
-3.65672	gökçek	-0.30103
-3.95775	ankaranın	-0.30103
-3.65672	başkent	-0.352183
-4.13384	anonim	-0.30103
-4.13384	şirketine	-0.30103
-3.95775	yıllığına	-0.30103
-4.13384	lisansı	-0.30103
-4.13384	verildiğini	-0.30103
-3.83281	özelleştirme	-0.30103
-3.83281	ihaleye	-0.30103
-4.13384	çıkılacağını	-0.30103
-4.13384	kurumlarla	-0.30103
-4.13384	yazışma	-0.30103
-3.95775	sürece	-0.30103
-3.95775	kaydetti	-0.477121
-3.95775	özelleştirmelerin	-0.30103
-4.13384	pahalısı	-0.30103
-4.13384	karlısı	-0.30103
-4.13384	yükseği	-0.30103
-4.13384	botaşa	-0.30103
-3.95775	borçlar	-0.30103
-3.95775	doğalgazın	-0.30103
-4.13384	yaygınlaşması	-0.30103
-3.95775	hazineden	-0.30103
-3.95775	civarında	-0.30103
-4.13384	rakamdır	-0.30103
-4.13384	bittikten	-0.30103
-4.13384	parayla	-0.30103
-4.13384	kilometresi	-0.30103
-4.13384	metroyu	-0.30103
-4.13384	bitirecek	-0.30103
-4.13384	suya	-0.30103
-4.13384	yatırımlarda	-0.30103
-4.13384	kullanacağız	-0.30103
-4.13384	ihalenin	-0.30103
-3.95775	artırma	-0.30103
-4.13384	usulüyle	-0.30103
-3.95775	medyanın	-0.30103
-4.13384	yapılacağını	-0.30103
-3.95775	yurt	-0.30103
-3.95775	içi	-0.30103
-4.13384	dışından	-0.30103
-4.13384	yerli	-0.30103
-3.95775	sayıda	-0.30103
-4.13384	firmanın	-0.30103
-4.13384	başvuruda	-0.30103
-4.13384	karlı	-0.30103
-4.13384	geçtikçe	-0.30103
-4.13384	önemi	-0.30103
-4.13384	arttığı	-0.30103
-3.83281	giren	-0.30103
-3.83281	sayısının	-0.30103
-4.13384	olursa	-0.30103
-4.13384	rakamının	-0.30103
-3.65672	o	-0.352183
-4.13384	yukarıya	-0.30103
-4.13384	çıkacağını	-0.30103
-4.13384	eminönündeki	-0.30103
-3.95775	atölyede	-0.30103
-3.48063	patlama	-0.414973
-3.83281	olayda	-0.30103
-4.13384	süleymaniye	-0.30103
-4.13384	mimar	-0.30103
-4.13384	sinan	-0.30103
-4.13384	caddesindeki	-0.30103
-4.13384	mutfak	-0.30103
-4.13384	eşyası	-0.30103
-4.13384	tamiratı	-0.30103
-4.13384	montajı	-0.30103
-4.13384	katlı	-0.30103
-4.13384	binada	-0.30103
-3.83281	bulut	-0.39794
-3.95775	atölyenin	-0.30103
-3.95775	bodrum	-0.30103
-3.83281	katında	-0.30103
-4.13384	çevredeki	-0.30103
-4.13384	araçların	-0.30103
-4.13384	hasar	-0.30103
-4.13384	gördüğü	-0.30103
-4.13384	katının	-0.30103
-4.13384	tavanı	-0.30103
-4.13384	çöktü	-0.30103
-4.13384	cam	-0.30103
-4.13384	çerçeveleri	-0.30103
-4.13384	kırılarak	-0.30103
-4.13384	sokağa	-0.30103
-4.13384	fırladı	-0.30103
-3.95775	enkaz	-0.30103
-3.95775	işyeri	-0.477121
-3.83281	sahibi	-0.30103
-4.13384	kaybetti	-0.30103
-4.13384	zergül	-0.30103
-4.13384	meydan	-0.30103
-4.13384	kaldırıldığı	-0.30103
-4.13384	haseki	-0.30103
-3.7359	araştırma	-0.30103
-3.95775	tedavi	-0.477121
-3.7359	altına	-0.367977
-4.13384	meydanın	-0.30103
-4.13384	ameliyata	-0.30103
-3.7359	sağlık	-0.30103
-4.13384	durumunun	-0.30103
-4.13384	hastaneye	-0.30103
-4.13384	kaldırılan	-0.30103
-4.13384	refik	-0.30103
-4.13384	yıldırım	-0.30103
-4.13384	business	-0.30103
-4.13384	esnaf	-0.30103
-3.95775	hastanesine	-0.30103
-4.13384	ulaştırılan	-0.30103
-4.13384	erdinç	-0.30103
-4.13384	adem	-0.30103
-4.13384	utanmazın	-0.30103
-4.13384	durumlarının	-0.30103
-3.65672	hanlı	-0.352183
-3.7359	gaz	-0.367977
-3.95775	sıkışmasından	-0.30103
-3.95775	müdür	-0.477121
-3.7359	yardımcısı	-0.367977
-3.83281	patlamanın	-0.30103
-4.13384	kaynaklanmış	-0.30103
-3.95775	olabileceğini	-0.477121
-4.13384	halkla	-0.30103
-4.13384	ilişkilerden	-0.30103
-4.13384	gerçekleştiği	-0.30103
-4.13384	incelemelerde	-0.30103
-4.13384	işyerinde	-0.30103
-4.13384	çaydanlık	-0.30103
-4.13384	üretildiğini	-0.30103
-4.13384	işyerinin	-0.30103
-3.95775	zemin	-0.477121
-3.95775	üretim	-0.30103
-3.95775	esnasında	-0.30103
-4.13384	sıkışması	-0.30103
-4.13384	değerlendiriyoruz	-0.30103
-3.95775	ilişkinin	-0.30103
-4.13384	incelemelerin	-0.30103
-4.13384	sürdüğünü	-0.30103
-4.13384	etapta	-0.30103
-4.13384	patlamasından	-0.30103
-4.13384	edemeyiz	-0.30103
-3.7359	arada	-0.30103
-4.13384	ölen	-0.30103
-4.13384	bulutun	-0.30103
-4.13384	cesedi	-0.30103
-4.13384	itfaiye	-0.30103
-4.13384	ekipleri	-0.30103
-4.13384	altından	-0.30103
-4.13384	çıkartıldı	-0.30103
-4.13384	reuters	-0.30103
-4.13384	bombadan	-0.30103
-4.13384	kaynaklandığını	-0.30103
-4.13384	duyurmuş	-0.30103
-4.13384	tüpün	-0.30103
-4.13384	açtığını	-0.30103
-4.13384	bildirmişti	-0.30103
-4.13384	ilişkiler	-0.30103
-4.13384	konseyinde	-0.30103
-3.65672	ılımlı	-0.778151
-4.13384	tartışmalarını	-0.30103
-4.13384	değerlendirdi	-0.30103
-3.35569	malezya	-0.346787
-4.13384	askerlerinin	-0.30103
-4.13384	ıraktan	-0.30103
-4.13384	çekilmesinde	-0.30103
-3.95775	olumlu	-0.30103
-3.95775	tavır	-0.30103
-4.13384	sergileyeceğini	-0.30103
-4.13384	tartışmaları	-0.30103
-3.7359	zamanlar	-0.69897
-3.95775	dediler	-0.30103
-4.13384	diyenler	-0.30103
-3.95775	görünce	-0.477121
-3.95775	yaparız	-0.477121
-3.95775	partiyi	-0.477121
-3.95775	zayıf	-0.477121
-3.95775	düşürürüz	-0.477121
-3.7359	demeye	-0.69897
-3.7359	başladılar	-0.477121
-3.53178	burada	-0.335792
-3.95775	gerekçeleri	-0.477121
-3.83281	bakın	-0.39794
-3.7359	defa	-0.367977
-3.95775	söylüyoruz	-0.477121
-4.13384	islamın	-0.30103
-3.95775	ılımlısı	-0.477121
-3.95775	ılımsızı	-0.477121
-3.58977	yoktur	-0.39794
-3.83281	vardır	-0.30103
-4.13384	gerekçesinde	-0.30103
-4.13384	laikliğin	-0.30103
-3.95775	tanımı	-0.30103
-3.95775	aynen	-0.30103
-4.13384	koymayı	-0.30103
-4.13384	arzu	-0.30103
-4.13384	ediyoruz	-0.30103
-4.13384	açtık	-0.30103
-3.83281	bunları	-0.30103
-4.13384	tartışacağız	-0.30103
-4.13384	müzakere	-0.30103
-4.13384	edeceğiz	-0.30103
-4.13384	ideali	-0.30103
-4.13384	neyse	-0.30103
-3.95775	onu	-0.30103
-3.83281	yapmaya	-0.30103
-4.13384	çalışıyoruz	-0.30103
-3.39348	ortak	-0.385351
-4.13384	akıl	-0.30103
-4.13384	oluşturmanın	-0.30103
-4.13384	gayreti	-0.30103
-4.13384	içindeyiz	-0.30103
-3.83281	maalesef	-0.30103
-3.7359	felaket	-0.30103
-4.13384	tellalları	-0.30103
-3.95775	siyasetçi	-0.30103
-4.13384	dininin	-0.30103
-3.95775	inanıcının	-0.477121
-3.83281	gereği	-0.60206
-3.95775	kiliseye	-0.30103
-4.13384	gidebilir	-0.30103
-4.13384	niye	-0.30103
-3.83281	gidiyor	-0.30103
-3.95775	kimse	-0.30103
-4.13384	söylemiyor	-0.30103
-4.13384	örtüyorsa	-0.30103
-3.95775	inancının	-0.30103
-4.13384	eşinin	-0.30103
-4.13384	örtmesinden	-0.30103
-4.13384	gereğini	-0.30103
-4.13384	getirmesinden	-0.30103
-4.13384	kimsenin	-0.30103
-4.13384	rahatsız	-0.30103
-4.13384	tartışılır	-0.30103
-4.13384	konular	-0.30103
-3.53178	mevcut	-0.335792
-4.13384	holbrookeun	-0.30103
-4.13384	açıklamaları	-0.30103
-4.13384	toplantının	-0.30103
-3.95775	açılışını	-0.30103
-4.13384	oturumu	-0.30103
-4.13384	müsteşarı	-0.30103
-4.13384	holbrookeu	-0.30103
-4.13384	göstererek	-0.30103
-4.13384	zamanlarda	-0.30103
-3.7359	durum	-0.30103
-4.13384	holbrooke	-0.30103
-4.13384	nediro	-0.30103
-3.95775	öyle	-0.30103
-3.95775	mi	-0.30103
-4.13384	sorması	-0.30103
-4.13384	salondan	-0.30103
-4.13384	gülüşmeler	-0.30103
-4.13384	duyuldu	-0.30103
-4.13384	istedikleri	-0.30103
-4.13384	çekmek	-0.30103
-4.13384	istiyorlar	-0.30103
-4.13384	yazıları	-0.30103
-4.13384	yazanlar	-0.30103
-3.7359	malezyayı	-0.30103
-4.13384	tanımıyorlar	-0.30103
-3.83281	malezyanın	-0.30103
-4.13384	konuşmuyorum	-0.30103
-3.83281	biraz	-0.39794
-4.13384	biliyorum	-0.30103
-3.95775	uç	-0.30103
-4.13384	örnekler	-0.30103
-4.13384	veriyorlar	-0.30103
-4.13384	örneklere	-0.30103
-4.13384	baktığınız	-0.30103
-4.13384	sanki	-0.30103
-4.13384	gazetelerden	-0.30103
-4.13384	resimlerden	-0.30103
-3.95775	yaşam	-0.30103
-4.13384	tarzı	-0.30103
-4.13384	içinizde	-0.30103
-4.13384	gidip	-0.30103
-4.13384	görenleriniz	-0.30103
-4.13384	gayet	-0.30103
-4.13384	bilirler	-0.30103
-3.95775	noktada	-0.30103
-4.13384	doğrusu	-0.30103
-4.13384	resimleri	-0.30103
-4.13384	gördükçe	-0.30103
-4.13384	gözlerime	-0.30103
-4.13384	inanamıyorum	-0.30103
-4.13384	şaşırıyorum	-0.30103
-3.95775	sözlerine	-0.30103
-4.13384	yaptılar	-0.30103
-4.13384	diyenlertürkiyenin	-0.30103
-4.13384	olurislamın	-0.30103
-4.13384	yaşamakisteyen	-0.30103
-4.13384	dinini	-0.30103
-4.13384	dinimizde	-0.30103
-4.13384	zorlama	-0.30103
-4.13384	inancınızı	-0.30103
-4.13384	yaşarsınız	-0.30103
-4.13384	yaşamazsınız	-0.30103
-4.13384	yaşamayana	-0.30103
-4.13384	yaşamayan	-0.30103
-4.13384	yaşayana	-0.30103
-3.95775	edemez	-0.30103
-4.13384	etmemelidir	-0.30103
-3.95775	saygı	-0.30103
-4.13384	duymalıdır	-0.30103
-4.13384	görevimiz	-0.30103
-4.13384	güvence	-0.30103
-4.13384	almaktır	-0.30103
-4.13384	kaynaklı	-0.30103
-3.58977	örgütünün	-0.30103
-3.7359	sonucunda	-0.367977
-3.95775	dökülen	-0.477121
-3.95775	kan	-0.477121
-3.95775	toplumumuzdaki	-0.477121
-3.95775	kitlesel	-0.477121
-3.95775	travmayı	-0.477121
-3.95775	derinleştirmekte	-0.477121
-3.83281	halkının	-0.39794
-3.95775	sabrını	-0.477121
-3.95775	zorlamakta	-0.477121
-3.48063	siyasi	-0.330993
-3.95775	seçeneklerini	-0.477121
-3.95775	azaltmaktadır	-0.477121
-4.13384	belasının	-0.30103
-4.13384	tezahürünün	-0.30103
-4.13384	kaynaklarının	-0.30103
-4.13384	kurutulması	-0.30103
-4.13384	gerektiğine	-0.30103
-4.13384	inandıklarını	-0.30103
-3.65672	başına	-0.30103
-4.13384	getiremeyeceğini	-0.30103
-3.95775	pentagondan	-0.30103
-3.95775	korunaklı	-0.30103
-4.13384	teröre	-0.30103
-4.13384	mücadelenin	-0.30103
-3.65672	birlikte	-0.30103
-4.13384	verilebileceğine	-0.30103
-4.13384	herhalde	-0.30103
-4.13384	gördüğünüz	-0.30103
-4.13384	belası	-0.30103
-4.13384	pentagonu	-0.30103
-4.13384	vurmuştur	-0.30103
-4.13384	eylülden	-0.30103
-3.95775	gelişmelere	-0.30103
-4.13384	baktığımızda	-0.30103
-4.13384	denli	-0.30103
-3.43487	mücadele	-0.327359
-4.13384	vermemiz	-0.30103
-4.13384	ortadadır	-0.30103
-3.53178	terörle	-0.653213
-4.13384	nato	-0.30103
-4.13384	kuvvetlerinde	-0.30103
-3.83281	yönetimi	-0.30103
-4.13384	aldığını	-0.30103
-3.95775	almaya	-0.30103
-4.13384	hazırlandığını	-0.30103
-4.13384	bunların	-0.30103
-3.95775	sebebi	-0.30103
-3.95775	boyutudur	-0.477121
-4.13384	insani	-0.30103
-4.13384	zorundayız	-0.30103
-4.13384	milleti	-0.30103
-3.95775	vatanı	-0.30103
-4.13384	senin	-0.30103
-3.95775	teröristin	-0.30103
-4.13384	kötü	-0.30103
-4.13384	benim	-0.30103
-4.13384	teröristim	-0.30103
-4.13384	anlayışıyla	-0.30103
-4.13384	çözemeyiz	-0.30103
-3.83281	hepsi	-0.30103
-4.13384	kötüdür	-0.30103
-4.13384	lanetlenmelidir	-0.30103
-4.13384	hepsine	-0.30103
-4.13384	durumundayız	-0.30103
-4.13384	tabii	-0.30103
-4.13384	başımızda	-0.30103
-4.13384	bölücü	-0.30103
-3.95775	kuzeyinde	-0.30103
-4.13384	varlığı	-0.30103
-4.13384	ülkemize	-0.30103
-4.13384	sürdürmüş	-0.30103
-3.83281	saldırıların	-0.30103
-4.13384	rahatsızlık	-0.30103
-4.13384	koymam	-0.30103
-4.13384	ifadelerini	-0.30103
-4.13384	sınırının	-0.30103
-4.13384	hemen	-0.30103
-4.13384	istikrarını	-0.30103
-3.95775	göz	-0.30103
-4.13384	yumamaz	-0.30103
-4.13384	beklentilerimiz	-0.30103
-4.13384	açıktır	-0.30103
-4.13384	makamları	-0.30103
-4.13384	açıklamaların	-0.30103
-4.13384	ötesinde	-0.30103
-3.95775	süratle	-0.30103
-3.95775	somut	-0.30103
-4.13384	adımlar	-0.30103
-4.13384	yazık	-0.30103
-3.58977	ana	-0.39794
-4.13384	görmedik	-0.30103
-3.7359	nuri	-0.477121
-3.48063	maliki	-0.330993
-3.65672	senatosunun	-0.30103
-3.7359	ırakı	-0.30103
-4.13384	üçe	-0.30103
-4.13384	bölen	-0.30103
-4.13384	şahsen	-0.30103
-3.95775	reddetti	-0.477121
-3.48063	federatif	-0.564271
-3.39348	ayrılmasını	-0.636822
-3.43487	öngören	-0.359022
-4.13384	ırakiye	-0.30103
-4.13384	tvsinde	-0.30103
-4.13384	bağlamak	-0.30103
-4.13384	ıraklılara	-0.30103
-4.13384	düşer	-0.30103
-4.13384	ıraklılar	-0.30103
-4.13384	muhafazadan	-0.30103
-3.83281	yana	-0.30103
-3.65672	senatoda	-0.352183
-3.83281	çarşamba	-0.30103
-4.13384	şiiler	-0.30103
-4.13384	sünniler	-0.30103
-4.13384	ayıran	-0.30103
-3.95775	planın	-0.30103
-3.95775	arkasında	-0.30103
-4.13384	olanların	-0.30103
-4.13384	teklifler	-0.30103
-4.13384	sunacaklarına	-0.30103
-4.13384	egemenlik	-0.30103
-4.13384	korumalarının	-0.30103
-4.13384	parçalanmasının	-0.30103
-3.95775	bölge	-0.30103
-3.7359	açısından	-0.30103
-4.13384	hükümet	-0.30103
-4.13384	dabbah	-0.30103
-4.13384	zorlayıcı	-0.30103
-4.13384	özellik	-0.30103
-3.83281	taşımayan	-0.39794
-3.65672	senato	-0.425969
-3.58977	dün	-0.30103
-4.13384	kınamıştı	-0.30103
-4.13384	hükümeti	-0.30103
-3.39348	sıcak	-0.477121
-4.13384	bakmıyor	-0.30103
-3.83281	planı	-0.30103
-4.13384	hazırlayanlar	-0.30103
-4.13384	şiddeti	-0.30103
-4.13384	durduracak	-0.30103
-3.95775	çözüm	-0.30103
-3.83281	bölünmesine	-0.39794
-3.7359	hüseyni	-0.30103
-3.95775	kararını	-0.30103
-4.13384	içişlerine	-0.30103
-4.13384	gördüklerini	-0.30103
-3.83281	girişimi	-0.30103
-4.13384	bütünlüğü	-0.30103
-4.13384	hakimiyetine	-0.30103
-3.95775	aykırı	-0.30103
-3.83281	bulduklarını	-0.30103
-4.13384	hatalar	-0.30103
-4.13384	zincirinin	-0.30103
-4.13384	devamı	-0.30103
-3.7359	tasarının	-0.367977
-3.95775	hükümetini	-0.30103
-4.13384	zayıflatmak	-0.30103
-4.13384	edildiğini	-0.30103
-4.13384	gösterdiğini	-0.30103
-4.13384	desteklediğini	-0.30103
-4.13384	geleceğini	-0.30103
-4.13384	belirlemenin	-0.30103
-4.13384	ıraklıların	-0.30103
-3.83281	doğal	-0.30103
-4.13384	ülkeyle	-0.30103
-4.13384	kararların	-0.30103
-4.13384	yollardan	-0.30103
-3.95775	alınması	-0.30103
-4.13384	bölünmesi	-0.30103
-4.13384	girişimlerin	-0.30103
-4.13384	tahrip	-0.30103
-4.13384	bölgedeki	-0.30103
-4.13384	istikrarsızlığı	-0.30103
-3.95775	amaçlı	-0.30103
-4.13384	sözcü	-0.30103
-4.13384	kınadıklarını	-0.30103
-3.7359	kongresinin	-0.69897
-3.7359	kanadı	-0.477121
-3.43487	önde	-0.511883
-3.7359	senatör	-0.69897
-3.7359	joe	-0.69897
-3.7359	biden	-0.69897
-3.7359	önerilen	-0.477121
-3.65672	gevşek	-0.778151
-3.83281	bağlayıcılığı	-0.39794
-4.13384	bulunmayan	-0.30103
-3.65672	tasarıyı	-0.425969
-3.83281	ezici	-0.60206
-3.83281	çoğunlukla	-0.60206
-4.13384	kurulundaki	-0.30103
-4.13384	oylamada	-0.30103
-3.83281	oyla	-0.60206
-3.83281	tasarı	-0.60206
-3.7359	kalmasını	-0.477121
-3.65672	şii	-0.544068
-3.7359	sünni	-0.69897
-3.65672	kürt	-0.544068
-3.7359	bölgelerine	-0.69897
-3.58977	petrol	-0.477121
-3.83281	gelirlerinin	-0.60206
-3.83281	denetiminin	-0.60206
-3.7359	bağdat	-0.477121
-3.83281	yönetiminde	-0.39794
-4.13384	öneriyor	-0.30103
-3.7359	beyatlı	-0.30103
-4.13384	kaderi	-0.30103
-4.13384	ıraklılarda	-0.30103
-4.13384	türkleri	-0.30103
-4.13384	yönetim	-0.30103
-4.13384	planına	-0.30103
-3.95775	toprağı	-0.477121
-3.95775	bütündür	-0.477121
-3.95775	kaderini	-0.477121
-3.83281	yalnızca	-0.39794
-3.95775	çizebilir	-0.30103
-3.95775	derece	-0.30103
-4.13384	çirkin	-0.30103
-4.13384	teklif	-0.30103
-4.13384	teklifin	-0.30103
-4.13384	çirkinliği	-0.30103
-3.83281	yanında	-0.30103
-4.13384	edilmesi	-0.30103
-4.13384	çirkindir	-0.30103
-3.7359	binlerce	-0.30103
-4.13384	kilometre	-0.30103
-4.13384	uzaktan	-0.30103
-4.13384	geleceği	-0.30103
-3.95775	tayin	-0.30103
-4.13384	edilemez	-0.30103
-3.58977	yönettiği	-0.30103
-4.13384	katliamlarla	-0.30103
-4.13384	sarsılmaktayız	-0.30103
-4.13384	gözyaşı	-0.30103
-4.13384	acılarla	-0.30103
-4.13384	insanlar	-0.30103
-4.13384	hayatlarını	-0.30103
-4.13384	sürdürmektedirler	-0.30103
-4.13384	parçalayarak	-0.30103
-4.13384	acılara	-0.30103
-4.13384	yenisini	-0.30103
-4.13384	eklemek	-0.30103
-4.13384	yönetimine	-0.30103
-4.13384	vermeyeceğiz	-0.30103
-3.95775	yapıya	-0.477121
-3.95775	onay	-0.477121
-3.95775	bağlayıcılık	-0.477121
-3.95775	bulunmuyor	-0.477121
-3.95775	öngörüyor	-0.477121
-3.95775	kalması	-0.477121
-3.83281	öneriliyor	-0.60206
-3.95775	çevreler	-0.477121
-3.95775	ileride	-0.477121
-3.95775	ayrı	-0.477121
-3.83281	yeşil	-0.60206
-3.83281	ışık	-0.39794
-3.95775	yakacağı	-0.477121
-3.83281	tasarıya	-0.60206
-3.95775	çıkıyor	-0.477121
-4.13384	rusyada	-0.30103
-3.83281	dünyaya	-0.39794
-3.65672	bebek	-0.30103
-4.13384	görenleri	-0.30103
-4.13384	hayrete	-0.30103
-4.13384	düşürüyor	-0.30103
-3.95775	çocuğu	-0.477121
-3.65672	nadya	-0.352183
-4.13384	tamına	-0.30103
-3.65672	kilo	-0.425969
-3.95775	ağırlığında	-0.477121
-4.13384	kilosu	-0.30103
-4.13384	bebeğe	-0.30103
-4.13384	sibiryalı	-0.30103
-4.13384	barabanova	-0.30103
-4.13384	ailesinin	-0.30103
-4.13384	who	-0.30103
-3.95775	gramlık	-0.30103
-4.13384	normal	-0.30103
-4.13384	ölçüsünden	-0.30103
-4.13384	nadyanın	-0.30103
-4.13384	annesi	-0.30103
-4.13384	hamileliğinde	-0.30103
-4.13384	diyet	-0.30103
-4.13384	uygulamadığını	-0.30103
-4.13384	çocuklarının	-0.30103
-4.13384	kilonun	-0.30103
-4.13384	doğduğunu	-0.30103
-4.13384	söylüyor	-0.30103
-4.13384	nadyayı	-0.30103
-4.13384	gördüğünde	-0.30103
-3.95775	şaşırdığını	-0.30103
-4.13384	itiraf	-0.30103
-4.13384	sibiryanın	-0.30103
-4.13384	kilolu	-0.30103
-4.13384	bebeği	-0.30103
-4.13384	guinness	-0.30103
-4.13384	rekorlar	-0.30103
-4.13384	kitabına	-0.30103
-4.13384	girmedi	-0.30103
-4.13384	şişman	-0.30103
-4.13384	rekoruna	-0.30103
-4.13384	epey	-0.30103
-4.13384	yaklaştı	-0.30103
-3.83281	tiyatrosu	-0.30103
-3.7359	yarın	-0.30103
-4.13384	sezonunu	-0.30103
-4.13384	açıyor	-0.30103
-3.95775	boyunca	-0.30103
-4.13384	değişik	-0.30103
-4.13384	oyun	-0.30103
-4.13384	sahnelenecek	-0.30103
-4.13384	tiyatrosunun	-0.30103
-4.13384	oyunlarından	-0.30103
-4.13384	shakespearein	-0.30103
-3.7359	yazdığı	-0.30103
-4.13384	zeynep	-0.30103
-4.13384	avcının	-0.30103
-4.13384	çevirdiği	-0.30103
-4.13384	rejisör	-0.30103
-3.95775	john	-0.30103
-4.13384	burgessın	-0.30103
-4.13384	kısasa	-0.30103
-4.13384	kısas	-0.30103
-4.13384	tiyatroda	-0.30103
-4.13384	prömiyerini	-0.30103
-4.13384	behiç	-0.30103
-4.13384	akın	-0.30103
-4.13384	serhat	-0.30103
-4.13384	nalbantoğlunun	-0.30103
-4.13384	şinasi	-0.30103
-3.95775	sahnesinde	-0.30103
-4.13384	beğeniye	-0.30103
